tree
version=v3
num_class=3
num_tree_per_iteration=3
label_index=0
max_feature_idx=8
objective=multiclass num_class:3
feature_names=A B C D E F G H I
feature_infos=[-1:1] [-1:1] [-1:1] [-1:1] [-1:1] [-1:1] [-1:1] [-1:1] [0:1]
tree_sizes=969 962 969 968 981 955 967 975 935 971 979 939 976 977 974 968 978 977 973 981 975 974 982 973 975 980 973 978 980 969 976 980 965 959 982 972 963 981 970 959 972 978 980 971 969 978 970 977 976 970 977 968 970 978 968 973 948 968 972 949 982 975 950 983 973 956 950 969 975 980 966 943 971 982 954 979 983 956 976 974 978 982 945 956 981 947 959 971 974 981 978 974 981 978 947 985 982 975 982 982 980 985 984 979 983 967 983 994 977 955 985 983 979 989 964 979 981 985 980 977 986 948 980 991 982 991 991 976 981 992 971 989 987 980 971 968 973 967 992 980 974 968 967 966 967 949 946 971 981 991 990 960 969 962 938 971 988 941 964 992 956 967 966 981 967 977 969 971 995 984 970 975 965 989 969 984 966 968 963 992 975 989 968 969 985 992 982 973 985 973 987 979 964 942 976 966 982 965 981 964 992 965 982 971 984 970 992 985 973 986 969 982 994 986 973 964 986 972 991 980 976 953 988 972 951 978 983 951 929 978 969 923 966 953 978 977 953 992 969 962 985 966 991 980 976 952 990 971 993 997 968 966 980 970 990 986 944 931 982 966 960 984 963 960 982 973 963 913 964 929 933 963 966 912 978 960 990 968 991 959 962 967 937 979 960 990 971 967 937 972 975 960 964 963 980 982 962 916 972 968 936 984 955 989 974 980 985 971 966 952 972 957 973 981 978 956 974 958 978 969 978 957 972 967 956 964 959 993 959 966 983 973 958 984 975 969 964 976 950 971 976 984 985 966 950 959 976 970 955 974 1003 961 987 960 941 924 970 984 973 957 998 949 983 964 946 954 968 972 944 998 909 965 960 944 991 986 961 940 986 947 966 958 945 956 978 966 994 943 944 954 985 936 958 967 911 983 981 908 986 997 977 954 978 975 959 965 908 959 959 971 981 982 973 989 967 977 983 979 976 984 942 937 981 942 908 982 944 940 983 982 909 974 988 908 984 987 913 986 943 913 981 961 913 979 946 948 983 946 913 986 984 939 964 967 914 966 935 913 984 966 914 995 965 973 993 948 915 968 996 915 994 943 982 968 980 916 971 988 915 985 921 967 988 951 914 998 953 964 988 930 915 968 970 917 971 946 963 962 991 915 995 947 916 994 968 916 998 990 953 977 972 967 967 933 957 992 980 918 986 969 918 975 988 912 968 989 955 976 963 960 976 990 959 984 964 955 991 962 939 993 964 943 993 966 960 982 964 965 978 928 1000 971 983 977 981 987 847 988 945 936 959 997 952 978 944 846 975 967 953 971 970 938 984 975 953 948 993 955 949 971 937 979 976 951 974 996 937 973 973 973 975 1000 976 958 953 917 962 971 915 965 974 912 963 989 918 959 961 954 979 956 949 988 994 955 960 963 939 966 967 916 994 958 954 967 948 954 979 973 954 931 945 919 958 972 919 966 976 957 968 943 952 958 971 952 965 974 955 968 965 955 968 978 953 933 974 955 933 956 956 990 1000 959 962 965 921 939 977 966 936 977 945 935 978 956 850 976 990 849 920 994 986 974 992 937 939 995 720 980 995 849 976 991 936 937 957 852 973 957 985 952 960 996 982 992 738 965 959 938 967 959 937 938 954 764 1005 958 938 966 955 940 937 959 763 936 998 938 952 956 765 929 995 939 959 961 943 936 994 959 931 922 943 932 961 653 929 996 655 940 918 941 930 997 941 930 923 996 970 996 942 953 994 992 975 995 750 913 721 966 959 979 934 956 997 828 957 998 438 957 992 435 913 976 436 740 996 437 746 998 436 933 1000 436 939 994 437 745 920 829 937 1000 438 932 998 435 810 1000 438 747 998 752 939 922 439 935 997 831 811 999 436 812 1001 438 935 1000 753 838 924 439 813 925 433 841 975 752 809 977 438 813 925 766 838 1001 436 811 915 436 950 639 437 812 976 437 936 909 437 747 980 769 566 643 437 970 646 437 939 634 436 941 438 439 748 636 440 944 437 436 942 436 346 749 438 440 940 959 345 942 438 345 940 437 346 729 954 439 940 438 345 729 956 439 940 438 344 727 437 438 943 958 345 939 437 439 870 438 437 841 436 436 838 437 346 941 957 346 852 439 346 848 439 438 941 959 440 843 439 530 635 440 636 626 851 440 532 440 952 1000 961 936 844 437 438 839 439 438 842 672 438 845 440 436

Tree=0
num_leaves=8
num_cat=0
split_feature=0 1 1 4 3 2 2
split_gain=335.444 29.1278 11.4279 9.0236 6.03173 2.2511 1.92597
threshold=1.0000000180025095e-35 -1.0000000180025095e-35 1.0000000180025095e-35 1.0000000180025095e-35 -1.0000000180025095e-35 1.0000000180025095e-35 1.0000000180025095e-35
decision_type=2 2 2 2 2 2 2
left_child=2 3 -1 4 -2 -5 -6
right_child=1 -3 -4 5 6 -7 -8
leaf_value=-0.75657803565325499 -0.69634247915885195 -0.54564024934088184 -0.63108500672531886 -0.64459749308317704 -0.65495620153481138 -0.58102387523546417 -0.60381928069626067
leaf_weight=156.01615396142006 17.210415065288547 160.50582745671272 4.4896734952926627 10.101765364408493 6.3603707849979383 14.591438859701157 5.6120918691158295
leaf_count=417 46 429 12 27 17 39 15
internal_value=-0.646355 -0.566012 -0.752085 -0.633751 -0.667712 -0.597587 -0.624812
internal_weight=0 214.382 160.506 53.8761 29.1829 24.6932 11.9725
internal_count=1002 573 429 144 78 66 32
shrinkage=1


Tree=1
num_leaves=8
num_cat=0
split_feature=6 3 0 5 2 0 4
split_gain=25.3501 42.5999 6.73472 12.8248 6.05056 0.245751 0.207836
threshold=1.0000000180025095e-35 -1.0000000180025095e-35 1.0000000180025095e-35 -1.0000000180025095e-35 -1.0000000180025095e-35 -1.0000000180025095e-35 -1.0000000180025095e-35
decision_type=2 2 2 2 2 2 2
left_child=2 6 3 4 -1 -5 -2
right_child=1 -3 -4 5 -6 -7 -8
leaf_value=-2.5915643786693607 -2.3914659632802522 -2.6163522330423099 -2.6320347716154928 -2.6126621353218304 -2.4778444684241476 -2.5797921393140735 -2.5446025100375809
leaf_weight=2.9440042972564697 5.6777225732803345 15.035450518131254 40.795488119125366 23.026319324970245 4.8365784883499137 6.4137236475944546 6.6240096688270587
leaf_count=28 54 143 388 219 46 61 63
internal_value=-2.57902 -2.50997 -2.60831 -2.57764 -2.50654 -2.60878 -2.41928
internal_weight=0 27.3372 78.0161 37.2206 7.78058 29.44 12.3017
internal_count=1002 260 742 354 74 280 117
shrinkage=1


Tree=2
num_leaves=8
num_cat=0
split_feature=0 1 1 2 5 2 2
split_gain=308.647 29.2126 16.3519 12.0951 2.86789 5.31072 2.36555
threshold=1.0000000180025095e-35 -1.0000000180025095e-35 1.0000000180025095e-35 1.0000000180025095e-35 -1.0000000180025095e-35 -1.0000000180025095e-35 1.0000000180025095e-35
decision_type=2 2 2 2 2 2 2
left_child=2 3 4 -2 5 -1 -6
right_child=1 -3 -4 -5 6 -7 -8
leaf_value=-0.83084812234162242 -0.88316497319837528 -1.0150135514619516 -0.94583500668684284 -0.96522575515434372 -0.77965040735405178 -0.90886681843260486 -0.85257133382939421
leaf_weight=12.242034137248991 25.20418792963028 154.465666025877 4.3207179307937613 26.644427239894867 79.213162064552307 20.163350343704224 38.526401549577713
leaf_count=34 70 429 12 74 220 56 107
internal_value=-0.915792 -0.994295 -0.81254 -0.925701 -0.806755 -0.865133 -0.796303
internal_weight=0 206.314 154.466 51.8486 150.145 32.4054 117.74
internal_count=1002 573 429 144 417 90 327
shrinkage=1


Tree=3
num_leaves=8
num_cat=0
split_feature=0 1 1 4 3 2 2
split_gain=266.177 23.0628 9.45734 8.15203 5.53143 1.81056 1.72111
threshold=1.0000000180025095e-35 -1.0000000180025095e-35 1.0000000180025095e-35 1.0000000180025095e-35 -1.0000000180025095e-35 1.0000000180025095e-35 1.0000000180025095e-35
decision_type=2 2 2 2 2 2 2
left_child=2 3 -1 4 -2 -5 -6
right_child=1 -3 -4 5 6 -7 -8
leaf_value=-0.098234181704421386 -0.047909426723003544 0.090512993125057215 0.01453030569851789 0.0024145644142139666 -0.0078626901951159792 0.061213896903804799 0.040445964161855447
leaf_weight=155.96641126275063 17.234828233718876 157.67476618289948 4.480263113975524 10.110254555940628 6.3677339255809766 14.46757709980011 5.5759773552417755
leaf_count=417 46 429 12 27 17 39 15
internal_value=0 0.0721197 -0.0941243 0.0116506 -0.020509 0.0461658 0.0205658
internal_weight=0 211.431 160.447 53.7564 29.1785 24.5778 11.9437
internal_count=1002 573 429 144 78 66 32
shrinkage=0.1


Tree=4
num_leaves=8
num_cat=0
split_feature=6 3 0 5 2 0 2
split_gain=23.6739 37.8483 6.25107 11.5607 5.48859 0.222029 0.117662
threshold=1.0000000180025095e-35 -1.0000000180025095e-35 1.0000000180025095e-35 -1.0000000180025095e-35 -1.0000000180025095e-35 -1.0000000180025095e-35 1.0000000180025095e-35
decision_type=2 2 2 2 2 2 2
left_child=2 -2 3 4 -1 -5 -6
right_child=1 -3 -4 5 6 -7 -8
leaf_value=-0.012644709104963828 0.14821920854982412 -0.036437403521165861 -0.051847746932460193 -0.032955915782715624 0.10233206781748178 -0.00084645212439475386 0.0054245103098230487
leaf_weight=2.9636688753962517 13.428487017750742 14.499615766108034 38.541625268757343 22.527081951498985 3.0025083571672422 6.4292992204427746 2.4959705322980881
leaf_count=28 117 143 388 219 25 61 21
internal_value=0 0.0667012 -0.0281317 0.00102428 0.0668631 -0.0291574 0.0934516
internal_weight=0 27.9281 75.9602 37.4185 8.46215 28.9564 5.49848
internal_count=1002 260 742 354 74 280 46
shrinkage=0.1


Tree=5
num_leaves=8
num_cat=0
split_feature=0 1 1 2 2 5 6
split_gain=242.712 24.4203 13.3746 10.4352 2.8737 9.07011 2.36952
threshold=1.0000000180025095e-35 -1.0000000180025095e-35 1.0000000180025095e-35 1.0000000180025095e-35 -1.0000000180025095e-35 -1.0000000180025095e-35 -1.0000000180025095e-35
decision_type=2 2 2 2 2 2 2
left_child=2 3 4 -2 -1 -6 -5
right_child=1 -3 -4 6 5 -7 -8
leaf_value=0.12001996953049431 0.029814821571717831 -0.091680401032446734 -0.029197006807929783 0 0.0028782920579555563 0.081394093553863039 -0.060299294315886855
leaf_weight=62.106690615415573 25.457527905702591 147.67196300625801 4.2784408032894126 8.1895239651203173 20.486345112323761 71.923890680074692 18.026351451873779
leaf_count=167 70 429 12 23 56 194 51
internal_value=0 -0.07204 0.0891211 -0.00933649 0.0942767 0.0664569 -0.0464706
internal_weight=0 199.345 158.795 51.6734 154.517 92.4102 26.2159
internal_count=1002 573 429 144 417 250 74
shrinkage=0.1


Tree=6
num_leaves=8
num_cat=0
split_feature=0 1 1 4 3 2 3
split_gain=214.277 18.6136 7.95624 7.41593 4.14084 2.40656 1.61818
threshold=1.0000000180025095e-35 -1.0000000180025095e-35 1.0000000180025095e-35 -1.0000000180025095e-35 -1.0000000180025095e-35 1.0000000180025095e-35 1.0000000180025095e-35
decision_type=2 2 2 2 2 2 2
left_child=2 3 6 4 -2 -5 -1
right_child=1 -3 -4 5 -6 -7 -8
leaf_value=-0.09248281547233704 -0.047071763147382865 0.082469412483181029 0.01369242244477771 0.00036495395117562839 0.017928392417599099 0.056376121222380962 -0.020438176202991685
leaf_weight=141.65839743614197 15.361267864704134 152.91343250870705 4.4660665392875663 13.489994168281557 7.8006470799446097 16.870113462209702 11.795879095792769
leaf_count=385 41 429 12 36 21 46 32
internal_value=0 0.0655351 -0.0849998 0.011 -0.0248678 0.0389842 -0.0888399
internal_weight=0 206.435 157.92 53.522 23.1619 30.3601 153.454
internal_count=1002 573 429 144 62 82 417
shrinkage=0.1


Tree=7
num_leaves=8
num_cat=0
split_feature=6 3 0 5 2 4 0
split_gain=21.228 32.1833 5.92078 10.6687 4.98688 1.28099 0.210663
threshold=1.0000000180025095e-35 -1.0000000180025095e-35 1.0000000180025095e-35 -1.0000000180025095e-35 -1.0000000180025095e-35 -1.0000000180025095e-35 -1.0000000180025095e-35
decision_type=2 2 2 2 2 2 2
left_child=2 5 3 4 -1 -2 -5
right_child=1 -3 -4 6 -6 -7 -8
leaf_value=-0.01232873509428613 0.15902485427609547 -0.03541378957492864 -0.050601355293159823 -0.032052007849853979 0.088075121405332801 0.02856316072934292 -0.0006931502342467867
leaf_weight=2.9017963036894798 7.5381799191236496 13.905449807643889 36.275738514959812 21.887077383697033 5.9884707033634168 7.5228834524750727 6.3968106657266643
leaf_count=28 54 143 388 219 46 63 61
internal_value=0 0.0626931 -0.0266735 0.00139299 0.0634784 0.133255 -0.0282994
internal_weight=0 28.9665 73.4499 37.1742 8.89027 15.0611 28.2839
internal_count=1002 260 742 354 74 117 280
shrinkage=0.1


Tree=8
num_leaves=8
num_cat=0
split_feature=0 1 1 2 2 5 6
split_gain=193.111 20.7372 11.218 9.06864 3.56515 7.91805 2.12623
threshold=1.0000000180025095e-35 -1.0000000180025095e-35 1.0000000180025095e-35 1.0000000180025095e-35 -1.0000000180025095e-35 -1.0000000180025095e-35 -1.0000000180025095e-35
decision_type=2 2 2 2 2 2 2
left_child=2 3 4 -2 -1 -6 -5
right_child=1 -3 -4 6 5 -7 -8
leaf_value=0.10735304523316154 0.027291319652384599 -0.085613162962488498 -0.028479955409838692 0 0 0.070869412663169526 -0.057218924731498894
leaf_weight=62.605268955230713 25.653246641159058 139.67103046178818 4.2389754652976981 8.176111042499544 20.69785463809967 72.686298578977585 17.574970722198486
leaf_count=167 70 429 12 23 56 194 51
internal_value=0 -0.0666994 0.0780343 -0.00892115 0.0827714 0.0570182 -0.0439377
internal_weight=0 191.075 160.228 51.4043 155.989 93.3842 25.7511
internal_count=1002 573 429 144 417 250 74
shrinkage=0.1


Tree=9
num_leaves=8
num_cat=0
split_feature=0 1 1 4 3 2 3
split_gain=174.182 15.3255 6.85154 6.76311 4.55169 1.66559 1.5594
threshold=1.0000000180025095e-35 -1.0000000180025095e-35 1.0000000180025095e-35 1.0000000180025095e-35 -1.0000000180025095e-35 -1.0000000180025095e-35 1.0000000180025095e-35
decision_type=2 2 2 2 2 2 2
left_child=2 3 6 4 -2 -3 -1
right_child=1 5 -4 -5 -6 -7 -8
leaf_value=-0.084887629530309677 -0.043754221554855956 0.021528418512600147 0.013026666292443723 0.042007062670963463 0.018421676264357371 0.080313304757132109 -0.01756534172881177
leaf_weight=137.68933442234993 17.205825835466388 16.767168641090393 4.4516208767890921 24.156892389059067 11.819865822792051 130.06961598992348 11.644200921058653
leaf_count=385 46 49 12 66 32 380 32
internal_value=0 0.0598618 -0.0777172 0.010231 -0.0189212 0.0757202 -0.0813839
internal_weight=0 200.019 153.785 53.1826 29.0257 146.837 149.334
internal_count=1002 573 429 144 78 429 417
shrinkage=0.1


Tree=10
num_leaves=8
num_cat=0
split_feature=3 6 5 2 2 4 0
split_gain=19.8021 29.8499 2.21893 1.75577 3.66902 3.87327 3.17873
threshold=-1.0000000180025095e-35 1.0000000180025095e-35 -1.0000000180025095e-35 1.0000000180025095e-35 -1.0000000180025095e-35 1.0000000180025095e-35 1.0000000180025095e-35
decision_type=2 2 2 2 2 2 2
left_child=1 2 -1 4 -2 6 -6
right_child=3 -3 -4 -5 5 -7 -8
leaf_value=0.014411662032200885 -0.036122789083725869 0.1246367853642141 -0.027693534012830513 -0.05130798347727368 0.073932079988797597 -0.020511734013285546 -0.0096864966139778227
leaf_weight=10.444043591618536 11.605392821133137 16.085995189845562 23.443264983594418 27.957959897816181 3.4766454771161079 4.9516487121582031 2.3895148485898972
leaf_count=103 122 117 249 303 31 50 27
internal_value=0 0.0436819 -0.0132505 -0.0374013 -0.00804319 0.0225605 0.0520823
internal_weight=0 49.9733 33.8873 50.3812 22.4232 10.8178 5.86616
internal_count=1002 469 352 533 230 108 58
shrinkage=0.1


Tree=11
num_leaves=8
num_cat=0
split_feature=0 1 1 2 2 5 6
split_gain=155.757 17.9545 9.57724 7.95045 4.02624 6.95435 1.95131
threshold=1.0000000180025095e-35 -1.0000000180025095e-35 1.0000000180025095e-35 1.0000000180025095e-35 -1.0000000180025095e-35 -1.0000000180025095e-35 -1.0000000180025095e-35
decision_type=2 2 2 2 2 2 2
left_child=2 3 4 -2 -1 -6 -5
right_child=1 -3 -4 6 5 -7 -8
leaf_value=0.097692161358190061 0.025210198497203198 -0.080652054073966473 -0.027710844694112238 0 0 0.062534459285720628 -0.054536782226272819
leaf_weight=61.923579543828964 25.788822025060654 131.18633517622948 4.1927064657211295 8.1462499499321002 20.821822643280029 72.520360738039017 17.108112215995789
leaf_count=167 70 429 12 23 56 194 51
internal_value=0 -0.0621785 0.0693264 -0.00844622 0.0737674 0.0494944 -0.0416353
internal_weight=0 182.23 159.458 51.0432 155.266 93.3422 25.2544
internal_count=1002 573 429 144 417 250 74
shrinkage=0.1


Tree=12
num_leaves=8
num_cat=0
split_feature=0 2 1 4 3 1 3
split_gain=143.463 13.1894 5.93877 5.36516 11.3275 3.51257 1.91021
threshold=1.0000000180025095e-35 1.0000000180025095e-35 1.0000000180025095e-35 -1.0000000180025095e-35 -1.0000000180025095e-35 -1.0000000180025095e-35 -1.0000000180025095e-35
decision_type=2 2 2 2 2 2 2
left_child=2 5 -1 4 -3 -2 -7
right_child=1 3 -4 -5 -6 6 -8
leaf_value=-0.075257375250972008 -0.013409643180008363 -0.013582490253933564 0.012235853508346946 0.085592197024585051 0.069371926104609058 -0.00089005858738987805 0.044642236198921333
leaf_weight=144.22280362248421 26.149280786514282 24.422747313976288 4.4317618012428275 90.638281226158142 24.935504615306854 10.313901364803316 16.695867627859116
leaf_count=417 70 71 12 274 76 31 51
internal_value=0 0.0551734 -0.071727 0.0704673 0.0321101 0.00932461 0.0303618
internal_weight=0 193.156 148.655 139.997 49.3583 53.159 27.0098
internal_count=1002 573 429 421 147 152 82
shrinkage=0.1


Tree=13
num_leaves=8
num_cat=0
split_feature=3 6 5 2 2 4 0
split_gain=18.0386 25.4205 2.05928 1.76046 3.46683 3.6529 2.93816
threshold=-1.0000000180025095e-35 1.0000000180025095e-35 -1.0000000180025095e-35 1.0000000180025095e-35 -1.0000000180025095e-35 1.0000000180025095e-35 1.0000000180025095e-35
decision_type=2 2 2 2 2 2 2
left_child=1 2 -1 4 -2 6 -6
right_child=3 -3 -4 -5 5 -7 -8
leaf_value=0.014070053179198839 -0.035028073104224441 0.11346046831976311 -0.026531103001349133 -0.050138010917603539 0.071064456253761274 -0.01997267803799262 -0.0092903537043822568
leaf_weight=10.506860785186289 11.041591085493565 17.544912219047546 22.666819244623184 26.251673400402069 3.7285867035388947 4.8067964911460876 2.3160131275653839
leaf_count=103 122 117 249 303 31 50 27
internal_value=0 0.0419493 -0.0122332 -0.0359306 -0.00694771 0.0223229 0.0505587
internal_weight=0 50.7186 33.1737 48.1447 21.893 10.8514 6.0446
internal_count=1002 469 352 533 230 108 58
shrinkage=0.1


Tree=14
num_leaves=8
num_cat=0
split_feature=0 2 1 1 2 5 6
split_gain=126.219 16.5318 8.29623 6.84195 4.52369 3.89918 2.20564
threshold=1.0000000180025095e-35 1.0000000180025095e-35 1.0000000180025095e-35 -1.0000000180025095e-35 1.0000000180025095e-35 -1.0000000180025095e-35 1.0000000180025095e-35
decision_type=2 2 2 2 2 2 2
left_child=2 3 4 -2 5 -1 -6
right_child=1 -3 -4 -5 6 -7 -8
leaf_value=0.024432022231459058 0.024222677430623212 -0.076533132092330536 -0.027071600351409639 -0.038408225706370216 0.040180748337820253 0.0897445164255114 -0.0022096800351186397
leaf_weight=23.217389345169067 25.821616917848587 123.59226760268211 4.1514576077461234 23.769259721040726 37.511459201574326 80.015797942876816 12.300468623638151
leaf_count=63 70 421 12 82 101 220 33
internal_value=0 -0.058158 0.0620028 -0.00636544 0.0662379 0.078952 0.0302577
internal_weight=0 173.183 157.197 49.5909 153.045 103.233 49.8119
internal_count=1002 573 429 152 417 283 134
shrinkage=0.1


Tree=15
num_leaves=8
num_cat=0
split_feature=0 1 4 1 3 3 2
split_gain=118.983 11.9711 5.71868 5.1828 3.84386 1.95093 1.64894
threshold=1.0000000180025095e-35 -1.0000000180025095e-35 1.0000000180025095e-35 1.0000000180025095e-35 -1.0000000180025095e-35 1.0000000180025095e-35 -1.0000000180025095e-35
decision_type=2 2 2 2 2 2 2
left_child=3 2 4 5 -2 -1 -3
right_child=1 6 -4 -5 -6 -7 -8
leaf_value=-0.07357961898492342 -0.041710259266874883 0.016409611630444437 0.037283603216023468 0.011481775867504044 0.015839238014645703 -0.010941066426563409 0.070560535990829662
leaf_weight=127.46030849218369 17.10082891583443 16.017619132995605 23.3951416015625 4.4095266163349143 11.562252312898634 11.143664360046385 118.2248977124691
leaf_count=385 46 49 66 12 32 32 380
internal_value=0 0.0510991 0.00735178 -0.0665312 -0.01911 -0.0699551 0.0660315
internal_weight=0 186.301 52.0582 143.013 28.6631 138.604 134.243
internal_count=1002 573 144 429 78 417 429
shrinkage=0.1


Tree=16
num_leaves=8
num_cat=0
split_feature=3 6 5 2 2 4 0
split_gain=16.2382 21.4104 1.89099 1.75616 3.28588 3.46514 2.78288
threshold=-1.0000000180025095e-35 1.0000000180025095e-35 -1.0000000180025095e-35 1.0000000180025095e-35 -1.0000000180025095e-35 1.0000000180025095e-35 1.0000000180025095e-35
decision_type=2 2 2 2 2 2 2
left_child=1 2 -1 4 -2 6 -6
right_child=3 -3 -4 -5 5 -7 -8
leaf_value=0.013602071919764045 -0.033971511082022836 0.10275469578787987 -0.025332122728574172 -0.048918103976099359 0.06895728660258775 -0.019460057116048382 -0.0090716943797149348
leaf_weight=10.603354744613169 10.515425875782967 19.07742078602314 21.896951176226139 24.584661357104778 3.9169926941394806 4.6734022721648216 2.2755981013178825
leaf_count=103 122 117 249 303 31 50 27
internal_value=0 0.0399507 -0.0112415 -0.0344134 -0.00586869 0.0221783 0.0493014
internal_weight=0 51.5777 32.5003 45.9661 21.3814 10.866 6.19259
internal_count=1002 469 352 533 230 108 58
shrinkage=0.1


Tree=17
num_leaves=8
num_cat=0
split_feature=0 1 2 2 1 5 6
split_gain=102.772 15.2768 7.29367 5.74643 4.25107 4.11962 1.90075
threshold=1.0000000180025095e-35 -1.0000000180025095e-35 1.0000000180025095e-35 1.0000000180025095e-35 -1.0000000180025095e-35 -1.0000000180025095e-35 -1.0000000180025095e-35
decision_type=2 2 2 2 2 2 2
left_child=2 3 5 -2 -4 -1 -5
right_child=1 -3 4 6 -6 -7 -8
leaf_value=0.019454438099896328 0.022482932400350826 -0.073229198661461048 0.036945872852552353 0.0010524856404191744 -0.013455533918090798 0.081645056638974547 -0.048242810457546192
leaf_weight=23.391035884618759 25.918905109167099 114.99421873688698 33.864108294248581 7.8783923685550699 18.569567799568176 78.182706415653229 15.772474020719528
leaf_count=64 70 429 92 23 51 222 51
internal_value=0 -0.0545369 0.0557015 -0.00532078 0.018999 0.0707988 -0.0349031
internal_weight=0 164.564 154.007 49.5698 52.4337 101.574 23.6509
internal_count=1002 573 429 144 143 286 74
shrinkage=0.1


Tree=18
num_leaves=8
num_cat=0
split_feature=0 2 4 3 1 3 2
split_gain=99.2673 10.2974 5.90958 10.3123 4.68618 2.6331 1.89083
threshold=1.0000000180025095e-35 1.0000000180025095e-35 -1.0000000180025095e-35 -1.0000000180025095e-35 1.0000000180025095e-35 -1.0000000180025095e-35 1.0000000180025095e-35
decision_type=2 2 2 2 2 2 2
left_child=4 5 3 -3 6 -2 -1
right_child=1 2 -4 -5 -6 -7 -8
leaf_value=-0.076403281332040371 -0.013395644214736838 -0.018335976825819746 0.07763226795985638 0.061838354009975574 0.011283157375457726 0.024859374833036366 -0.033421906625154006
leaf_weight=87.694613724946976 24.344642847776413 23.578712731599808 81.632512599229813 22.3381187915802 4.402120202779769 27.118777602910995 45.147265166044235
leaf_count=283 70 71 274 76 12 82 134
internal_value=0 0.0474061 0.0617791 0.0238575 -0.0621065 0.00671425 -0.0655082
internal_weight=0 179.013 127.549 45.9168 137.244 51.4634 132.842
internal_count=1002 573 421 147 429 152 417
shrinkage=0.1


Tree=19
num_leaves=8
num_cat=0
split_feature=3 6 2 2 4 0 5
split_gain=14.8168 18.3579 1.76815 3.15837 3.27658 2.61004 1.74721
threshold=-1.0000000180025095e-35 1.0000000180025095e-35 1.0000000180025095e-35 -1.0000000180025095e-35 1.0000000180025095e-35 1.0000000180025095e-35 -1.0000000180025095e-35
decision_type=2 2 2 2 2 2 2
left_child=1 6 3 -2 5 -5 -1
right_child=2 -3 -4 4 -6 -7 -8
leaf_value=0.013397033343805365 -0.033007237164103045 0.094697414155165915 -0.047770126151799458 0.066993760510528744 -0.018776107556683991 -0.0087062067441663494 -0.024085309336496823
leaf_weight=10.638156324625017 10.051750905811787 20.326997086405754 23.111893489956856 4.0947251543402672 4.4973051100969315 2.2084175422787666 21.125063568353653
leaf_count=103 122 117 303 31 50 27 249
internal_value=0 0.0386328 -0.032945 -0.00473503 0.0223921 0.0483324 -0.0101325
internal_weight=0 52.0902 43.9641 20.8522 10.8004 6.30314 31.7632
internal_count=1002 469 533 230 108 58 352
shrinkage=0.1


Tree=20
num_leaves=8
num_cat=0
split_feature=0 2 2 5 1 4 4
split_gain=84.1884 13.9844 7.44058 7.02746 4.97726 2.29335 2.09697
threshold=1.0000000180025095e-35 1.0000000180025095e-35 -1.0000000180025095e-35 -1.0000000180025095e-35 -1.0000000180025095e-35 1.0000000180025095e-35 -1.0000000180025095e-35
decision_type=2 2 2 2 2 2 2
left_child=2 4 -1 5 -2 -4 -5
right_child=1 -3 3 6 -6 -7 -8
leaf_value=0.077620757069140581 0.021591190775097302 -0.069763746425017314 -0.030967592248076992 0.054236574716836551 -0.032613288995375467 0.016940031915149433 0.011378398255296162
leaf_weight=57.015370815992355 25.923230558633804 108.18520390987396 16.372011005878452 43.08917298913002 21.77298840880394 6.6272928714752188 27.181969970464706
leaf_count=169 70 421 44 122 82 18 76
internal_value=0 -0.0512754 0.0503427 0.0272821 -0.00365009 -0.0146976 0.041764
internal_weight=0 155.881 150.286 93.2704 47.6962 22.9993 70.2711
internal_count=1002 573 429 260 152 62 198
shrinkage=0.1


Tree=21
num_leaves=8
num_cat=0
split_feature=0 1 5 1 4 3 6
split_gain=83.5578 9.78796 5.82941 4.33422 3.89006 2.0922 1.66976
threshold=1.0000000180025095e-35 -1.0000000180025095e-35 -1.0000000180025095e-35 1.0000000180025095e-35 1.0000000180025095e-35 1.0000000180025095e-35 1.0000000180025095e-35
decision_type=2 2 2 2 2 2 2
left_child=3 2 -2 5 -4 -1 -3
right_child=1 6 4 -5 -6 -7 -8
leaf_value=-0.065526521112838215 0.038360614179437522 0.069062290640838381 -0.040226331704426077 0.011351263365512797 0.017013661009627219 -0.0063497409355418172 0.028646471072044495
leaf_weight=116.49266943335533 19.740081995725632 78.945087343454361 20.111390352249146 4.4015256464481345 10.865640312433245 10.664597272872923 42.564664602279663
leaf_count=385 57 285 55 12 32 32 144
internal_value=0 0.0440831 0.00468695 -0.0583246 -0.0196761 -0.0617528 0.0585397
internal_weight=0 172.227 50.7171 131.559 30.977 127.157 121.51
internal_count=1002 573 144 429 87 417 429
shrinkage=0.1


Tree=22
num_leaves=8
num_cat=0
split_feature=3 6 2 4 2 0 5
split_gain=13.3097 15.6617 1.71513 3.02889 3.00669 2.41597 1.59059
threshold=-1.0000000180025095e-35 1.0000000180025095e-35 1.0000000180025095e-35 1.0000000180025095e-35 -1.0000000180025095e-35 1.0000000180025095e-35 -1.0000000180025095e-35
decision_type=2 2 2 2 2 2 2
left_child=1 6 3 4 -2 -6 -1
right_child=2 -3 -4 -5 5 -7 -8
leaf_value=0.012867739589533132 -0.017827302269888268 0.086833513148862035 -0.046475488125683397 -0.032286768158707901 0.06417673945917364 -0.0084100328987973261 -0.022923354715222877
leaf_weight=10.740937776863577 4.3309916034340858 21.625867232680321 21.565590791404247 9.6166584640741348 4.3550322875380516 2.1543975323438644 20.434891574084759
leaf_count=103 56 117 303 116 31 27 249
internal_value=0 0.0368685 -0.0314637 -0.00393344 0.0222432 0.0465819 -0.00924768
internal_weight=0 52.8017 42.0227 20.4571 10.8404 6.50943 31.1758
internal_count=1002 469 533 230 114 58 352
shrinkage=0.1


Tree=23
num_leaves=8
num_cat=0
split_feature=0 1 2 5 5 2 4
split_gain=69.4031 13.4817 6.99316 6.28918 4.4993 2.69207 2.12973
threshold=1.0000000180025095e-35 -1.0000000180025095e-35 -1.0000000180025095e-35 -1.0000000180025095e-35 -1.0000000180025095e-35 1.0000000180025095e-35 1.0000000180025095e-35
decision_type=2 2 2 2 2 2 2
left_child=2 4 -1 6 -2 -6 -4
right_child=1 -3 3 -5 5 -7 -8
leaf_value=0.072691848311537063 -0.032935759373680394 -0.067504889662707984 -0.030864769805629008 0.037872604708720843 0.039324560250342533 -0.0085119839069674758 0.015463431847004961
leaf_weight=54.304388403892517 18.514091372489929 99.985187515616417 16.351256459951404 68.872910052537918 15.589776426553726 13.860447019338608 6.6151783466339102
leaf_count=169 57 429 44 198 42 45 18
internal_value=0 -0.0481829 0.045824 0.0238682 -0.002345 0.0190926 -0.015361
internal_weight=0 147.95 146.144 91.8393 47.9643 29.4502 22.9664
internal_count=1002 573 429 260 144 87 62
shrinkage=0.1


Tree=24
num_leaves=8
num_cat=0
split_feature=0 4 3 2 1 6 7
split_gain=70.2356 8.94516 12.4745 5.59946 4.01198 2.49243 4.16017
threshold=1.0000000180025095e-35 -1.0000000180025095e-35 -1.0000000180025095e-35 1.0000000180025095e-35 1.0000000180025095e-35 1.0000000180025095e-35 1.0000000180025095e-35
decision_type=2 2 2 2 2 2 2
left_child=4 2 5 -3 -1 6 -2
right_child=1 3 -4 -5 -6 -7 -8
leaf_value=-0.058155354314229572 -0.036859921796340546 0.013326323280958405 0.049886041366047212 0.071903976708911632 0.011444131574358286 -0.052376432669914409 0.025716228981077355
leaf_weight=121.44614070653915 9.2601948380470276 29.773389130830765 28.136491909623146 73.063730999827385 4.4001601040363303 11.770713567733763 13.482697248458862
leaf_count=417 28 92 102 274 12 34 43
internal_value=0 0.0410788 0.0083436 0.0580717 -0.0546905 -0.0279985 -0.0017116
internal_weight=0 165.487 62.6501 102.837 125.846 34.5136 22.7429
internal_count=1002 573 207 366 429 105 71
shrinkage=0.1


Tree=25
num_leaves=8
num_cat=0
split_feature=3 6 2 4 2 0 5
split_gain=12.0578 13.2437 1.70852 2.84973 2.75597 2.2505 1.45534
threshold=-1.0000000180025095e-35 1.0000000180025095e-35 1.0000000180025095e-35 1.0000000180025095e-35 -1.0000000180025095e-35 1.0000000180025095e-35 -1.0000000180025095e-35
decision_type=2 2 2 2 2 2 2
left_child=1 6 3 4 -2 -6 -1
right_child=2 -3 -4 -5 5 -7 -8
leaf_value=0.012684254005182706 -0.01700788739015955 0.079796601545198909 -0.045353144525742711 -0.031217638543755484 0.061518032333829423 -0.0081885373983979614 -0.021624641640000358
leaf_weight=10.760858930647375 4.127128541469574 22.869554877281189 20.310884866863489 9.1382579952478409 4.6051989868283272 2.1139336079359055 19.692006587982178
leaf_count=103 56 117 303 116 31 27 249
internal_value=0 0.0354398 -0.0300849 -0.00294939 0.0220191 0.0448162 -0.00812657
internal_weight=0 53.3224 40.2954 19.9845 10.8463 6.71913 30.4529
internal_count=1002 469 533 230 114 58 352
shrinkage=0.1


Tree=26
num_leaves=8
num_cat=0
split_feature=0 2 2 5 1 4 7
split_gain=57.087 12.5406 6.95777 5.58379 3.6741 2.31397 2.43537
threshold=1.0000000180025095e-35 1.0000000180025095e-35 -1.0000000180025095e-35 -1.0000000180025095e-35 -1.0000000180025095e-35 -1.0000000180025095e-35 1.0000000180025095e-35
decision_type=2 2 2 2 2 2 2
left_child=2 4 -1 -4 -2 -5 -7
right_child=1 -3 3 5 -6 6 -8
leaf_value=0.068679088593369769 0.020371567894818941 -0.064477017064765774 -0.016230091546489019 0.046520002191227899 -0.027071773863053008 0.02541309106817681 -0.020531731092718081
leaf_weight=51.658504247665405 25.897320061922073 94.590315222740173 22.912863671779633 40.942934155464172 19.821719199419022 15.904517233371735 10.419696867465973
leaf_count=169 70 421 62 122 82 46 30
internal_value=0 -0.0453712 0.0415533 0.0202111 -0.000467383 0.033765 0.00520485
internal_weight=0 140.309 141.839 90.18 45.719 67.2671 26.3242
internal_count=1002 573 429 260 152 198 76
shrinkage=0.1


Tree=27
num_leaves=8
num_cat=0
split_feature=0 4 3 2 1 2 3
split_gain=59.0281 8.54539 11.3204 5.05596 3.69649 2.59181 4.88962
threshold=1.0000000180025095e-35 -1.0000000180025095e-35 -1.0000000180025095e-35 1.0000000180025095e-35 1.0000000180025095e-35 1.0000000180025095e-35 -1.0000000180025095e-35
decision_type=2 2 2 2 2 2 2
left_child=4 2 -2 -3 5 -1 -7
right_child=1 3 -4 -5 -6 6 -8
leaf_value=-0.066744873113463318 -0.027905477464970588 0.012630035765105975 0.047060312481575654 0.069009383090841009 0.011393956470236765 -0.049209977629953348 0.0086456978626897867
leaf_weight=74.234636336565018 34.311887234449387 29.505363196134567 26.791444316506386 68.440168008208275 4.392665207386016 21.453134924173355 20.276559323072433
leaf_count=283 105 92 102 274 12 71 63
internal_value=0 0.0381957 0.0062567 0.0552321 -0.0513535 -0.0548431 -0.0238943
internal_weight=0 159.049 61.1033 97.9455 120.357 115.964 41.7297
internal_count=1002 573 207 366 429 417 134
shrinkage=0.1


Tree=28
num_leaves=8
num_cat=0
split_feature=3 6 2 4 2 0 5
split_gain=10.8135 11.1751 1.66693 2.72605 2.54396 2.07266 1.34258
threshold=-1.0000000180025095e-35 1.0000000180025095e-35 1.0000000180025095e-35 1.0000000180025095e-35 -1.0000000180025095e-35 1.0000000180025095e-35 -1.0000000180025095e-35
decision_type=2 2 2 2 2 2 2
left_child=1 6 3 4 -2 -6 -1
right_child=2 -3 -4 -5 5 -7 -8
leaf_value=0.01255038794663353 -0.016204459949559834 0.07325987647713042 -0.044138921365852533 -0.030397700028570524 0.059098716257561579 -0.0077964629583715172 -0.020476826840286427
leaf_weight=10.770130828022959 3.9314168691635132 24.063026696443558 19.035672936588526 8.7808573842048645 4.8367774859070778 2.0430230796337128 19.059232696890831
leaf_count=103 56 117 303 116 31 27 249
internal_value=0 0.0338238 -0.0286937 -0.00215275 0.0219685 0.0434212 -0.00713965
internal_weight=0 53.8924 38.6277 19.5921 10.8112 6.8798 29.8294
internal_count=1002 469 533 230 114 58 352
shrinkage=0.1


Tree=29
num_leaves=8
num_cat=0
split_feature=0 1 2 7 1 5 3
split_gain=46.7549 12.0502 6.89496 5.16378 4.18294 3.78041 2.21395
threshold=1.0000000180025095e-35 -1.0000000180025095e-35 -1.0000000180025095e-35 1.0000000180025095e-35 -1.0000000180025095e-35 -1.0000000180025095e-35 -1.0000000180025095e-35
decision_type=2 2 2 2 2 2 2
left_child=2 5 -1 -4 -5 -2 -6
right_child=1 -3 3 4 6 -7 -8
leaf_value=0.065118034348030929 -0.028755632490691629 -0.06265000617926253 0.040908913996789656 0.017112475756964295 0.0038205330809552903 0.019606286111890279 -0.048430945920154948
leaf_weight=49.025067120790482 17.644027799367905 86.650627315044403 37.232607781887054 30.840864568948746 8.0323987603187561 28.879655733704567 12.387335062026978
leaf_count=169 57 429 113 89 23 87 35
internal_value=0 -0.0425202 0.037686 0.0169126 -0.0035334 0 -0.0317342
internal_weight=0 133.174 137.518 88.4932 51.2606 46.5237 20.4197
internal_count=1002 573 429 260 147 144 58
shrinkage=0.1


Tree=30
num_leaves=8
num_cat=0
split_feature=0 4 3 2 1 2 1
split_gain=50.2295 7.92763 10.0287 4.98473 3.39788 2.38966 5.24533
threshold=1.0000000180025095e-35 -1.0000000180025095e-35 -1.0000000180025095e-35 1.0000000180025095e-35 1.0000000180025095e-35 1.0000000180025095e-35 -1.0000000180025095e-35
decision_type=2 2 2 2 2 2 2
left_child=4 2 -2 -3 5 -1 -7
right_child=1 3 -4 -5 -6 6 -8
leaf_value=-0.063886064760111411 -0.026875098499354502 0.010838786593892129 0.04440644309804373 0.066677009645636498 0.011140556102597756 -0.043130549475180413 0.018442792736745175
leaf_weight=69.776320815086365 34.208706796169281 29.020094811916351 25.496301576495171 64.305027410387993 4.3763169944286338 27.621844440698624 13.417054682970045
leaf_count=283 105 92 102 274 12 92 42
internal_value=0 0.0356714 0.00485117 0.0525271 -0.0485433 -0.0520412 -0.0223511
internal_weight=0 153.03 59.705 93.3251 115.192 110.815 41.0389
internal_count=1002 573 207 366 429 417 134
shrinkage=0.1


Tree=31
num_leaves=8
num_cat=0
split_feature=3 6 2 4 2 0 5
split_gain=9.73442 9.64223 1.58032 2.57355 2.32319 1.9006 1.22896
threshold=-1.0000000180025095e-35 1.0000000180025095e-35 1.0000000180025095e-35 1.0000000180025095e-35 -1.0000000180025095e-35 1.0000000180025095e-35 -1.0000000180025095e-35
decision_type=2 2 2 2 2 2 2
left_child=1 6 3 4 -2 -6 -1
right_child=2 -3 -4 -5 5 -7 -8
leaf_value=0.012227598388401956 -0.015469659203559272 0.068116723467197493 -0.042821947978669637 -0.029609209036464541 0.0563124956651243 -0.0074851828462195848 -0.019421152157232082
leaf_weight=10.829069234430792 3.7558786571025848 25.039753079414368 17.759079914540052 8.4499308243393898 5.1093427389860153 1.9870424047112463 18.498827982693911
leaf_count=103 56 117 303 116 31 27 249
internal_value=0 0.0324387 -0.0273402 -0.00163698 0.0214999 0.0415947 -0.00632606
internal_weight=0 54.3677 37.0613 19.3022 10.8523 7.09639 29.3279
internal_count=1002 469 533 230 114 58 352
shrinkage=0.1


Tree=32
num_leaves=8
num_cat=0
split_feature=0 1 2 7 1 5 3
split_gain=38.673 11.3577 6.48905 4.76327 3.73 3.42067 1.94802
threshold=1.0000000180025095e-35 -1.0000000180025095e-35 -1.0000000180025095e-35 1.0000000180025095e-35 -1.0000000180025095e-35 -1.0000000180025095e-35 -1.0000000180025095e-35
decision_type=2 2 2 2 2 2 2
left_child=2 5 -1 -4 -5 -2 -6
right_child=1 -3 3 4 6 -7 -8
leaf_value=0.061645133844510806 -0.026797673603222823 -0.060499272662027218 0.037950696198581671 0.014920956656144416 0.0027036574728504267 0.019451507814907086 -0.046789104478365165
leaf_weight=46.220986872911453 17.223311394453049 80.708935797214508 36.251432180404663 30.462349951267242 7.961118310689927 28.738730952143669 12.422935634851456
leaf_count=169 57 429 113 89 23 87 35
internal_value=0 -0.0399779 0.0343582 0.0145052 -0.0048787 0 -0.0312858
internal_weight=0 126.671 133.319 87.0978 50.8464 45.962 20.3841
internal_count=1002 573 429 260 147 144 58
shrinkage=0.1


Tree=33
num_leaves=8
num_cat=0
split_feature=0 4 3 2 1 3 6
split_gain=42.8181 7.34216 8.87478 4.90028 3.12589 2.38017 1.76567
threshold=1.0000000180025095e-35 -1.0000000180025095e-35 -1.0000000180025095e-35 1.0000000180025095e-35 1.0000000180025095e-35 1.0000000180025095e-35 1.0000000180025095e-35
decision_type=2 2 2 2 2 2 2
left_child=4 2 6 -3 5 -1 -2
right_child=1 3 -4 -5 -6 -7 -8
leaf_value=-0.053719508812208473 -0.0022990810996326985 0.0092219926871544011 0.041925617644042706 0.064540325237513019 0.010895634532596976 0 -0.046205572998279869
leaf_weight=96.265735134482384 22.134466946125031 28.557952761650085 24.273012772202492 60.413329318165779 4.357239991426467 9.6158994734287244 11.963886290788649
leaf_count=385 71 92 102 274 12 32 34
internal_value=0 0.0333556 0.00362993 0.0500153 -0.0458985 -0.0494057 -0.0258226
internal_weight=0 147.343 58.3714 88.9713 110.239 105.882 34.0984
internal_count=1002 573 207 366 429 417 105
shrinkage=0.1


Tree=34
num_leaves=8
num_cat=0
split_feature=3 6 2 4 4 2 5
split_gain=8.81301 8.34108 1.49557 2.42401 2.18191 1.32276 1.12428
threshold=-1.0000000180025095e-35 1.0000000180025095e-35 1.0000000180025095e-35 1.0000000180025095e-35 -1.0000000180025095e-35 -1.0000000180025095e-35 -1.0000000180025095e-35
decision_type=2 2 2 2 2 2 2
left_child=1 6 3 4 -2 -6 -1
right_child=2 -3 -4 -5 5 -7 -8
leaf_value=0.011967609050168479 -0.0091852288050417695 0.06361066761233318 -0.041570342223368598 -0.028842100439457754 -0.0037095319959396123 0.057998102286249242 -0.018363862888461088
leaf_weight=10.874459080398085 6.8991596512496471 25.913390725851059 16.626034129410982 8.1364336125552654 1.3158813640475275 2.6820942535996437 17.955991011112928
leaf_count=103 77 117 303 116 20 17 249
internal_value=0 0.031214 -0.0260976 -0.00119705 0.020976 0.0459753 -0.00549987
internal_weight=0 54.7438 35.6596 19.0336 10.8971 3.99798 28.8305
internal_count=1002 469 533 230 114 37 352
shrinkage=0.1


Tree=35
num_leaves=8
num_cat=0
split_feature=0 2 2 7 1 4 3
split_gain=31.9433 11.018 6.13373 4.32378 3.19994 2.92598 1.7763
threshold=1.0000000180025095e-35 1.0000000180025095e-35 -1.0000000180025095e-35 1.0000000180025095e-35 -1.0000000180025095e-35 1.0000000180025095e-35 -1.0000000180025095e-35
decision_type=2 2 2 2 2 2 2
left_child=2 5 -1 -4 -5 -2 -6
right_child=1 -3 3 4 6 -7 -8
leaf_value=0.058477717371550414 0.0236569996224247 -0.058081347155488718 0.035001054824261572 0.012647155180895792 0.0023233446986017192 -0.019197000285692378 -0.04497745871869481
leaf_weight=43.508840203285217 22.119746550917625 77.27163927257061 35.222175806760788 30.040164798498154 7.9239145219326028 21.236786082386971 12.457245826721191
leaf_count=169 72 421 113 89 23 80 35
internal_value=0 -0.0375773 0.0312597 0.0122412 -0.0059918 0.00206543 -0.0302301
internal_weight=0 120.628 129.152 85.6435 50.4213 43.3565 20.3812
internal_count=1002 573 429 260 147 152 58
shrinkage=0.1


Tree=36
num_leaves=8
num_cat=0
split_feature=0 1 5 1 4 2 1
split_gain=36.3274 6.9408 4.31297 2.8643 2.67835 2.4544 4.48912
threshold=1.0000000180025095e-35 -1.0000000180025095e-35 -1.0000000180025095e-35 1.0000000180025095e-35 1.0000000180025095e-35 1.0000000180025095e-35 -1.0000000180025095e-35
decision_type=2 2 2 2 2 2 2
left_child=3 2 -2 5 -4 -1 -7
right_child=1 -3 4 -5 -6 6 -8
leaf_value=-0.059120596739524744 0.029548635347888742 0.045434858544416687 -0.03827513123858034 0.010638332926529579 0.010958799230951843 -0.038467156159952456 0.018635804254099643
leaf_weight=62.035180196166039 17.90989725291729 94.784967422485352 19.456953167915344 4.3354587554931632 9.9046353846788424 25.920063927769661 13.310326159000395
leaf_count=283 57 429 55 12 32 92 42
internal_value=0 0.0310822 0 -0.0432833 -0.0218319 -0.0467898 -0.0182273
internal_weight=0 142.056 47.2715 105.601 29.3616 101.266 39.2304
internal_count=1002 573 144 429 87 417 134
shrinkage=0.1


Tree=37
num_leaves=8
num_cat=0
split_feature=3 6 2 4 4 2 5
split_gain=7.88252 7.09977 1.47448 2.32761 2.03833 1.23025 1.03768
threshold=-1.0000000180025095e-35 1.0000000180025095e-35 1.0000000180025095e-35 1.0000000180025095e-35 -1.0000000180025095e-35 -1.0000000180025095e-35 -1.0000000180025095e-35
decision_type=2 2 2 2 2 2 2
left_child=1 6 3 4 -2 -6 -1
right_child=2 -3 -4 -5 5 -7 -8
leaf_value=0.01188324182808724 -0.0085691935712430677 0.059027701098624756 -0.040424212920678847 -0.028036151540510913 -0.0034202430527743156 0.056284851247991319 -0.017342147508965389
leaf_weight=10.877152465283872 6.7321929670870304 26.801899001002312 15.647203546017407 7.816278498619794 1.2690196707844732 2.8159800916910189 17.445973020046949
leaf_count=103 77 117 303 116 20 17 249
internal_value=0 0.0298572 -0.0247703 -0.000351984 0.0211086 0.0449274 -0.00464168
internal_weight=0 55.125 34.2807 18.6335 10.8172 4.085 28.3231
internal_count=1002 469 533 230 114 37 352
shrinkage=0.1


Tree=38
num_leaves=8
num_cat=0
split_feature=2 1 5 1 0 7 3
split_gain=27.3011 10.7209 9.78195 4.05651 2.0783 2.06512 1.40336
threshold=1.0000000180025095e-35 -1.0000000180025095e-35 -1.0000000180025095e-35 1.0000000180025095e-35 1.0000000180025095e-35 1.0000000180025095e-35 1.0000000180025095e-35
decision_type=2 2 2 2 2 2 2
left_child=2 4 -1 6 -2 -6 -4
right_child=1 -3 3 -5 5 -7 -8
leaf_value=-0.011371708547145108 0.016328340526317393 -0.056984027477275129 0.057059579052573806 -0.017902155929007069 0.01230594405012337 -0.035704115761839232 0.0079441843800404123
leaf_weight=34.72580648958683 30.175363928079605 70.976345434784889 69.618523478507996 3.282604679465293 6.497005134820939 12.199474468827248 12.796543002128599
leaf_count=114 92 398 262 14 22 52 48
internal_value=0 -0.0346402 0.030115 0.0468801 0.0011278 -0.0188037 0.0516593
internal_weight=0 119.848 120.423 85.6977 48.8718 18.6965 82.4151
internal_count=1002 564 438 324 166 74 310
shrinkage=0.1


Tree=39
num_leaves=8
num_cat=0
split_feature=0 4 3 2 1 3 6
split_gain=31.8055 6.63884 7.7311 4.48251 2.54525 2.22809 1.38312
threshold=1.0000000180025095e-35 -1.0000000180025095e-35 -1.0000000180025095e-35 1.0000000180025095e-35 1.0000000180025095e-35 1.0000000180025095e-35 1.0000000180025095e-35
decision_type=2 2 2 2 2 2 2
left_child=4 2 6 -3 5 -1 -2
right_child=1 3 -4 -5 -6 -7 -8
leaf_value=-0.049236048850213085 -0.0034835443698941759 0.0074529912106000087 0.038616802671457978 0.060883603580363765 0.0096337205339176585 0 -0.044164060063060256
leaf_weight=87.899681001901627 21.475523144006729 27.99717952311039 22.232289373874664 53.770148828625679 4.2916672527790061 9.3050677329301816 11.923787564039229
leaf_count=385 71 92 102 274 12 32 34
internal_value=0 0.0293935 0.00101808 0.0459395 -0.0413805 -0.0447877 -0.0259887
internal_weight=0 137.399 55.6316 81.7673 101.496 97.2047 33.3993
internal_count=1002 573 207 366 429 417 105
shrinkage=0.1


Tree=40
num_leaves=8
num_cat=0
split_feature=3 6 2 4 2 0 5
split_gain=7.25805 6.23932 1.4754 2.22824 1.92911 1.64625 0.923808
threshold=-1.0000000180025095e-35 1.0000000180025095e-35 1.0000000180025095e-35 1.0000000180025095e-35 -1.0000000180025095e-35 1.0000000180025095e-35 -1.0000000180025095e-35
decision_type=2 2 2 2 2 2 2
left_child=1 6 3 4 -2 -6 -1
right_child=2 -3 -4 -5 5 -7 -8
leaf_value=0.011569516715810539 -0.013739080236192717 0.056119889535741568 -0.039444245366697946 -0.027186715268109042 0.05206565003823839 -0.0069658202397292913 -0.016095476438208162
leaf_weight=10.929280474781992 3.3546729274094105 27.389314159750938 14.862620882689951 7.4864699542522422 5.4983612000942248 1.8927803784608839 16.848109506070614
leaf_count=103 56 117 303 116 31 27 249
internal_value=0 0.0292832 -0.0235638 0 0.0212384 0.0387605 -0.00370569
internal_weight=0 55.1667 33.0949 18.2323 10.7458 7.39114 27.7774
internal_count=1002 469 533 230 114 58 352
shrinkage=0.1


Tree=41
num_leaves=8
num_cat=0
split_feature=2 1 5 1 6 0 3
split_gain=23.3515 9.07212 8.69742 3.63375 1.88398 1.8277 1.16047
threshold=1.0000000180025095e-35 -1.0000000180025095e-35 -1.0000000180025095e-35 1.0000000180025095e-35 -1.0000000180025095e-35 1.0000000180025095e-35 1.0000000180025095e-35
decision_type=2 2 2 2 2 2 2
left_child=2 4 -1 6 -2 -6 -4
right_child=1 -3 3 -5 5 -7 -8
leaf_value=-0.01121853741300648 0.019730529081715683 -0.054311234089196352 0.053856294447197008 -0.017163121021040482 0.0055680611474583268 -0.033861843255986478 0.0075901298586647853
leaf_weight=34.295180588960648 19.533180221915245 67.104069828987122 66.630076974630356 3.1757550984621039 16.929014265537262 11.615508064627649 12.576280802488325
leaf_count=114 64 398 262 14 51 51 48
internal_value=0 -0.0330472 0.027829 0.0440803 1.21686e-05 -0.0138022 0.0487451
internal_weight=0 115.182 116.677 82.3821 48.0777 28.5445 79.2064
internal_count=1002 564 438 324 166 102 310
shrinkage=0.1


Tree=42
num_leaves=8
num_cat=0
split_feature=0 4 3 2 1 2 3
split_gain=27.8882 6.10442 6.90751 4.05759 2.25533 2.08546 4.00385
threshold=1.0000000180025095e-35 -1.0000000180025095e-35 -1.0000000180025095e-35 1.0000000180025095e-35 1.0000000180025095e-35 1.0000000180025095e-35 -1.0000000180025095e-35
decision_type=2 2 2 2 2 2 2
left_child=4 2 -2 -3 5 -1 -7
right_child=1 3 -4 -5 -6 6 -8
leaf_value=-0.054926265507284459 -0.02469049962457506 0.0074740783342939461 0.036930472643587085 0.05905776225781998 0.0087211589078666114 -0.041199692863677029 0.011807900557999964
leaf_weight=55.282012939453125 33.275391906499863 27.937211930751801 21.319984421133995 50.533298507332802 4.2463669478893271 18.691478028893471 19.462390929460526
leaf_count=283 105 92 102 274 12 71 63
internal_value=0 0.0279359 0.000590921 0.0441786 -0.0394275 -0.0427307 -0.0162851
internal_weight=0 133.066 54.5954 78.4705 97.6822 93.4359 38.1539
internal_count=1002 573 207 366 429 417 134
shrinkage=0.1


Tree=43
num_leaves=8
num_cat=0
split_feature=3 6 0 2 2 4 4
split_gain=6.53202 5.31032 2.58268 2.1975 1.42224 2.12268 1.8668
threshold=-1.0000000180025095e-35 1.0000000180025095e-35 -1.0000000180025095e-35 -1.0000000180025095e-35 1.0000000180025095e-35 1.0000000180025095e-35 -1.0000000180025095e-35
decision_type=2 2 2 2 2 2 2
left_child=1 2 3 -1 5 6 -2
right_child=4 -3 -4 -5 -6 -7 -8
leaf_value=-0.016561332164123484 -0.0079336931264504737 0.052208795591097958 -0.027916968540465017 0.035839538381292418 -0.038408123033209694 -0.026497266214955462 0.043417362682166671
leaf_weight=4.0517539717257032 6.5372603163123131 28.143042519688606 12.415112104266882 10.868981994688509 14.066985715180634 7.2264222577214232 4.1953200399875659
leaf_count=69 77 117 172 111 303 116 37
internal_value=0 0.0279611 -0.00296078 0.0186679 -0.0225027 0 0.0209873
internal_weight=0 55.4789 27.3358 14.9207 32.026 17.959 10.7326
internal_count=1002 469 352 180 533 230 114
shrinkage=0.1


Tree=44
num_leaves=8
num_cat=0
split_feature=2 1 5 1 6 4 3
split_gain=20.2598 8.0751 7.89271 3.35347 1.69656 3.14311 0.951783
threshold=1.0000000180025095e-35 -1.0000000180025095e-35 -1.0000000180025095e-35 1.0000000180025095e-35 1.0000000180025095e-35 -1.0000000180025095e-35 1.0000000180025095e-35
decision_type=2 2 2 2 2 2 2
left_child=2 4 -1 6 5 -2 -4
right_child=1 -3 3 -5 -6 -7 -8
leaf_value=-0.011260887424964705 0.033274519685169479 -0.052509333789249893 0.051127013902977518 -0.016810220313462167 -0.021406198450899378 -0.015340684646802619 0.0075501982277373899
leaf_weight=34.034646227955818 18.785816878080364 63.441176660358906 64.110338196158409 3.1294752508401862 13.255105853080748 14.939405888319017 12.548781991004942
leaf_count=114 60 398 262 14 48 58 48
internal_value=0 -0.0317958 0.0257844 0.0416376 0 0.0120124 0.046265
internal_weight=0 110.422 113.823 79.7886 46.9803 33.7252 76.6591
internal_count=1002 564 438 324 166 118 310
shrinkage=0.1


Tree=45
num_leaves=8
num_cat=0
split_feature=0 4 3 2 3 1 6
split_gain=24.8225 5.48251 6.11389 3.66661 2.11803 1.77609 1.24597
threshold=1.0000000180025095e-35 -1.0000000180025095e-35 -1.0000000180025095e-35 1.0000000180025095e-35 1.0000000180025095e-35 1.0000000180025095e-35 1.0000000180025095e-35
decision_type=2 2 2 2 2 2 2
left_child=4 2 6 -3 5 -1 -2
right_child=1 3 -4 -5 -6 -7 -8
leaf_value=-0.045496607965128798 -0.0020539735021927975 0.0074741441452413279 0.035434129098312492 0.057260707701253979 0.001144548436430749 0.0046661832902669302 -0.040014320683622588
leaf_weight=80.791200399398804 21.197286367416382 27.869726464152336 20.502897694706917 47.461818724870682 9.5468896776437742 3.826182395219802 11.978080302476881
leaf_count=385 71 92 102 274 33 11 34
internal_value=0 0.0266936 0.000586185 0.042462 -0.0378614 -0.0424465 -0.0230112
internal_weight=0 129.01 53.6783 75.3315 94.1643 84.6174 33.1754
internal_count=1002 573 207 366 429 396 105
shrinkage=0.1


Tree=46
num_leaves=8
num_cat=0
split_feature=3 6 0 2 2 4 2
split_gain=5.81316 4.63384 2.37513 1.99999 1.37741 2.04939 1.80575
threshold=-1.0000000180025095e-35 1.0000000180025095e-35 -1.0000000180025095e-35 -1.0000000180025095e-35 1.0000000180025095e-35 1.0000000180025095e-35 -1.0000000180025095e-35
decision_type=2 2 2 2 2 2 2
left_child=1 2 3 -1 5 6 -2
right_child=4 -3 -4 -5 -6 -7 -8
leaf_value=-0.015966111305486058 -0.013195611310255234 0.048869105034832105 -0.02699065379773552 0.033967160868584666 -0.037321173985551966 -0.025869858874662133 0.037748238650878105
leaf_weight=3.9014932960271844 3.230509378015995 28.774773523211479 11.967470195144415 11.190011218190191 13.287342663854362 6.9944997765123835 7.4563883580267447
leaf_count=69 56 117 172 111 303 116 58
internal_value=0 0.0265788 -0.00256631 0.0178471 -0.0213429 0 0.020997
internal_weight=0 55.8337 27.059 15.0915 30.9687 17.6814 10.6869
internal_count=1002 469 352 180 533 230 114
shrinkage=0.1


Tree=47
num_leaves=8
num_cat=0
split_feature=2 0 5 1 2 3 0
split_gain=17.0246 7.53228 7.15594 3.07828 2.02938 1.61669 1.36663
threshold=1.0000000180025095e-35 1.0000000180025095e-35 -1.0000000180025095e-35 1.0000000180025095e-35 -1.0000000180025095e-35 1.0000000180025095e-35 -1.0000000180025095e-35
decision_type=2 2 2 2 2 2 2
left_child=2 6 4 -4 5 -1 -2
right_child=1 -3 3 -5 -6 -7 -8
leaf_value=0.028849063967255006 -0.007356078963727735 -0.050800569415156475 0.043642571448672812 -0.016481590797300258 -0.026398666283872264 -0.017671849552939215 0.025899101883760309
leaf_weight=9.3734999895095807 40.461321026086807 59.734871573746204 74.069809764623642 3.0858660191297522 21.947238489985466 2.4281602650880805 6.3034636974334708
leaf_count=38 124 421 310 14 66 10 19
internal_value=0 -0.0299702 0.0235662 0.0390491 -0.0115222 0.0132687 1.84552e-05
internal_weight=0 106.5 110.905 77.1557 33.7489 11.8017 46.7648
internal_count=1002 564 438 324 114 48 143
shrinkage=0.1


Tree=48
num_leaves=8
num_cat=0
split_feature=0 1 7 3 2 1 6
split_gain=21.4375 5.21456 3.19925 2.09026 5.50366 3.75758 2.0851
threshold=1.0000000180025095e-35 -1.0000000180025095e-35 1.0000000180025095e-35 -1.0000000180025095e-35 1.0000000180025095e-35 -1.0000000180025095e-35 1.0000000180025095e-35
decision_type=2 2 2 2 2 2 2
left_child=3 2 -2 -1 -5 -6 -3
right_child=1 6 -4 4 5 -7 -8
leaf_value=-0.051155242444513555 -0.032317808543000211 0.051051230791665785 0.014286031969946787 -0.039826583649531427 -0.015951513777938957 0.045007467355651469 0.011621843395392859
leaf_weight=42.09896782040596 12.567500561475752 48.626505941152573 31.861214324831963 27.23816080391407 10.830585911870003 10.590061277151108 31.953275114297867
leaf_count=212 38 285 106 148 38 31 144
internal_value=0 0.0251779 -0.00149372 -0.0357667 -0.0151493 0.0173271 0.038977
internal_weight=0 125.008 44.4287 90.7578 48.6588 21.4206 80.5798
internal_count=1002 573 144 429 217 69 429
shrinkage=0.1


Tree=49
num_leaves=8
num_cat=0
split_feature=3 6 0 2 2 4 4
split_gain=5.16497 4.03793 2.16594 1.7956 1.31717 1.94359 1.69402
threshold=-1.0000000180025095e-35 1.0000000180025095e-35 -1.0000000180025095e-35 -1.0000000180025095e-35 1.0000000180025095e-35 1.0000000180025095e-35 -1.0000000180025095e-35
decision_type=2 2 2 2 2 2 2
left_child=1 2 3 -1 5 6 -2
right_child=4 -3 -4 -5 -6 -7 -8
leaf_value=-0.015310916579039553 -0.0073381873432680489 0.045627560509823334 -0.026059149372277414 0.031923947814735031 -0.03627214628156019 -0.025180119504112437 0.041657500485243505
leaf_weight=3.7421424649655828 6.3563429675996304 29.359046831727028 11.5320212431252 11.549222618341444 12.577955029904844 6.7443692274391642 4.336475223302843
leaf_count=69 77 117 172 111 303 116 37
internal_value=0 0.0251167 -0.00226961 0.0169042 -0.0203268 0 0.0206446
internal_weight=0 56.1824 26.8234 15.2914 30.0151 17.4372 10.6928
internal_count=1002 469 352 180 533 230 114
shrinkage=0.1


Tree=50
num_leaves=8
num_cat=0
split_feature=2 1 5 1 2 3 6
split_gain=14.6892 7.16747 6.46413 2.83713 1.77978 1.50195 1.48877
threshold=1.0000000180025095e-35 -1.0000000180025095e-35 -1.0000000180025095e-35 1.0000000180025095e-35 -1.0000000180025095e-35 1.0000000180025095e-35 -1.0000000180025095e-35
decision_type=2 2 2 2 2 2 2
left_child=2 6 4 -4 5 -1 -2
right_child=1 -3 3 -5 -6 -7 -8
leaf_value=0.027422175648091525 0.018543234933677773 -0.049432418371438469 0.041288228079582719 -0.016161280471697695 -0.025385222583959668 -0.017405557982748354 -0.011809693022488719
leaf_weight=9.0731597840785962 18.55430269241333 57.129823416471481 72.071417301893234 3.0417268127202979 21.822648093104362 2.4011633992195121 26.632544130086899
leaf_count=38 64 398 310 14 66 10 102
internal_value=0 -0.0286825 0.0217647 0.0367489 -0.0115631 0.0119761 0.000849297
internal_weight=0 102.317 108.41 75.1131 33.297 11.4743 45.1868
internal_count=1002 564 438 324 114 48 166
shrinkage=0.1


Tree=51
num_leaves=8
num_cat=0
split_feature=0 4 3 2 3 1 1
split_gain=19.1424 5.13787 5.43345 3.15817 1.92858 1.46953 1.07222
threshold=1.0000000180025095e-35 -1.0000000180025095e-35 -1.0000000180025095e-35 1.0000000180025095e-35 1.0000000180025095e-35 1.0000000180025095e-35 -1.0000000180025095e-35
decision_type=2 2 2 2 2 2 2
left_child=4 2 -2 -3 5 -1 -6
right_child=1 3 -4 -5 6 -7 -8
leaf_value=-0.042018659782714372 -0.023266900109850164 0.0071897173757704842 0.032892156188928649 0.054540839943590304 -0.013773288520739255 0.0038248073491242971 0.02438650161897005
leaf_weight=74.623071506619453 32.47384962439537 27.563343390822411 18.969002857804298 42.722150273621082 6.3456198126077652 3.759591579437255 2.9615578800439817
leaf_count=385 105 92 102 274 23 11 10
internal_value=0 0.0239903 0 0.0398027 -0.0344167 -0.0390701 0.00212119
internal_weight=0 121.728 51.4429 70.2855 87.6898 78.3827 9.30718
internal_count=1002 573 207 366 429 396 33
shrinkage=0.1


Tree=52
num_leaves=8
num_cat=0
split_feature=3 6 0 2 2 4 2
split_gain=4.58954 3.49505 1.91756 1.60075 1.29803 1.86126 1.64778
threshold=-1.0000000180025095e-35 1.0000000180025095e-35 -1.0000000180025095e-35 -1.0000000180025095e-35 1.0000000180025095e-35 1.0000000180025095e-35 -1.0000000180025095e-35
decision_type=2 2 2 2 2 2 2
left_child=1 2 3 -1 5 6 -2
right_child=4 -3 -4 -5 -6 -7 -8
leaf_value=-0.014703333826783538 -0.012461955926082978 0.042615105626473401 -0.024835736574166045 0.029755497980577569 -0.035353354522944601 -0.024400658121011585 0.03638655921242568
leaf_weight=3.5969830118119726 3.0675241053104401 29.98453114926815 10.992485281080008 11.937945500016211 11.991740236058833 6.4688891954720011 7.564853787422182
leaf_count=69 56 117 172 111 303 116 58
internal_value=0 0.0238368 -0.00187559 0.0157766 -0.0192632 0 0.0206606
internal_weight=0 56.5119 26.5274 15.5349 29.093 17.1013 10.6324
internal_count=1002 469 352 180 533 230 114
shrinkage=0.1


Tree=53
num_leaves=8
num_cat=0
split_feature=2 1 5 1 2 4 3
split_gain=12.6508 6.15225 5.82056 2.58803 1.55449 1.50099 1.40511
threshold=1.0000000180025095e-35 -1.0000000180025095e-35 -1.0000000180025095e-35 1.0000000180025095e-35 -1.0000000180025095e-35 -1.0000000180025095e-35 1.0000000180025095e-35
decision_type=2 2 2 2 2 2 2
left_child=2 -2 4 5 6 -4 -1
right_child=1 -3 3 -5 -6 -7 -8
leaf_value=0.026186811097052287 0.00014250382614151803 -0.046986573841699769 0.050632545161131505 -0.015651949129470415 -0.024256394352306188 0.01242530083351745 -0.017196702623305301
leaf_weight=8.7923895716667158 44.805668577551842 54.436737485229969 41.393846750259399 2.9523680806159964 21.644964516162872 28.470587059855461 2.3604862391948691
leaf_count=38 166 398 184 14 66 126 10
internal_value=0 -0.0271859 0.0202348 0.0347451 -0.0114034 0.039194 0.0108521
internal_weight=0 99.2424 105.615 72.8168 32.7978 69.8644 11.1529
internal_count=1002 564 438 324 114 310 48
shrinkage=0.1


Tree=54
num_leaves=8
num_cat=0
split_feature=0 4 3 2 3 1 2
split_gain=17.0553 4.59048 4.87793 2.94787 1.92564 4.9488 2.87263
threshold=1.0000000180025095e-35 -1.0000000180025095e-35 -1.0000000180025095e-35 1.0000000180025095e-35 -1.0000000180025095e-35 -1.0000000180025095e-35 1.0000000180025095e-35
decision_type=2 2 2 2 2 2 2
left_child=4 2 -2 -3 -1 -6 -7
right_child=1 3 -4 -5 5 6 -8
leaf_value=-0.048081082017210147 -0.021790470467011908 0.0068477843845083722 0.031804873420580054 0.053023686779218052 -0.037876430936402396 -0.012553931099436678 0.040867803276427681
leaf_weight=38.589019507169724 32.352696031332016 27.463788121938705 18.341825917363167 40.358228363096714 24.836863435804844 10.758017890155315 10.688281983137131
leaf_count=212 105 92 102 274 123 63 31
internal_value=0 0.0229951 0 0.0382504 -0.032895 -0.013052 0.0170096
internal_weight=0 118.517 50.6945 67.822 84.8722 46.2832 21.4463
internal_count=1002 573 207 366 429 217 94
shrinkage=0.1


Tree=55
num_leaves=8
num_cat=0
split_feature=3 6 0 5 2 4 2
split_gain=4.14938 3.1413 1.7574 1.48705 1.22618 1.78085 1.54069
threshold=-1.0000000180025095e-35 1.0000000180025095e-35 -1.0000000180025095e-35 -1.0000000180025095e-35 1.0000000180025095e-35 1.0000000180025095e-35 -1.0000000180025095e-35
decision_type=2 2 2 2 2 2 2
left_child=1 2 3 -1 5 6 -2
right_child=4 -3 -4 -5 -6 -7 -8
leaf_value=0.035046131632798898 -0.012007253739315778 0.040293459752035916 -0.024085170016581267 -0.0065969124265310075 -0.034451620330860785 -0.023947058237331773 0.035271128441088234
leaf_weight=6.0533607602119455 2.9683587141335011 30.367292985320091 10.664004817605019 9.6597574651241285 11.430807091295721 6.3119205944240084 7.6772698014974612
leaf_count=33 56 117 172 147 303 116 58
internal_value=0 0.0226499 -0.00178083 0.0148918 -0.0185256 0 0.0202359
internal_weight=0 56.7444 26.3771 15.7131 28.3884 16.9575 10.6456
internal_count=1002 469 352 180 533 230 114
shrinkage=0.1


Tree=56
num_leaves=8
num_cat=0
split_feature=1 0 3 0 2 5 6
split_gain=11.587 7.16836 3.45388 2.85443 2.31723 2.31968 1.25774
threshold=-1.0000000180025095e-35 1.0000000180025095e-35 -1.0000000180025095e-35 -1.0000000180025095e-35 1.0000000180025095e-35 -1.0000000180025095e-35 -1.0000000180025095e-35
decision_type=2 2 2 2 2 2 2
left_child=4 2 -2 -4 5 -1 -6
right_child=1 -3 3 -5 6 -7 -8
leaf_value=0 0.028556924113657768 -0.049009466062700444 -0.038596082686839631 0.013288104156669138 0.016530108665053899 0.041628950680678727 -0.011652646116011238
leaf_weight=20.111941039562225 18.657353699207306 51.345958441495895 14.526827991008759 10.003727287054062 18.107148289680481 40.694635644555092 26.066636845469475
leaf_count=64 78 429 51 43 64 171 102
internal_value=0 -0.0269673 0.00258589 -0.0182687 0.0189943 0.030218 0
internal_weight=0 94.5339 43.1879 24.5306 104.98 60.8066 44.1738
internal_count=1002 601 172 94 401 235 166
shrinkage=0.1


Tree=57
num_leaves=8
num_cat=0
split_feature=0 4 3 2 3 1 2
split_gain=15.0566 4.1902 4.3626 2.79952 1.75551 1.19642 0.939837
threshold=1.0000000180025095e-35 -1.0000000180025095e-35 -1.0000000180025095e-35 1.0000000180025095e-35 1.0000000180025095e-35 1.0000000180025095e-35 1.0000000180025095e-35
decision_type=2 2 2 2 2 2 2
left_child=4 2 -2 -3 5 6 -1
right_child=1 3 -4 -5 -6 -7 -8
leaf_value=-0.049608918821084681 -0.02078709763256853 0.0061711687575175984 0.030349591099486685 0.051521398079158121 0.0028489955770347069 0.0028422687563940123 -0.015156355882323773
leaf_weight=39.073118887841702 32.112250417470932 27.084997028112411 17.60747405141592 38.11927804350853 9.0831198543310148 3.6746559739112845 30.430237501859665
leaf_count=267 105 92 102 274 33 11 118
internal_value=0 0.0217774 0 0.0366738 -0.0314759 -0.0361679 -0.0389573
internal_weight=0 114.924 49.7197 65.2043 82.2611 73.178 69.5034
internal_count=1002 573 207 366 429 396 385
shrinkage=0.1


Tree=58
num_leaves=8
num_cat=0
split_feature=3 6 0 2 0 4 0
split_gain=3.77831 2.74644 1.66551 1.38977 1.14822 1.32015 2.46945
threshold=-1.0000000180025095e-35 1.0000000180025095e-35 -1.0000000180025095e-35 -1.0000000180025095e-35 1.0000000180025095e-35 1.0000000180025095e-35 -1.0000000180025095e-35
decision_type=2 2 2 2 2 2 2
left_child=1 2 3 -1 5 6 -2
right_child=4 -3 -4 -5 -6 -7 -8
leaf_value=-0.013834513456539034 -0.012075745028359439 0.038109001767287654 -0.023363605269650655 0.027555618455042293 -0.033393714145022999 -0.021443623174733861 0.045278167280727963
leaf_weight=3.3899334892630586 7.5906465910375127 30.711457520723343 10.357470374554396 12.305806804448364 10.899783236905934 5.429272796958684 3.7728959321975717
leaf_count=69 94 117 172 111 316 94 29
internal_value=0 0.0217968 -0.00128191 0.0147654 -0.0177114 0 0.0169069
internal_weight=0 56.7647 26.0532 15.6957 27.6926 16.7928 11.3635
internal_count=1002 469 352 180 533 217 123
shrinkage=0.1


Tree=59
num_leaves=8
num_cat=0
split_feature=1 0 3 0 2 5 6
split_gain=10.0577 6.44902 2.97094 2.60259 2.10204 2.13503 1.09768
threshold=-1.0000000180025095e-35 1.0000000180025095e-35 -1.0000000180025095e-35 -1.0000000180025095e-35 1.0000000180025095e-35 -1.0000000180025095e-35 -1.0000000180025095e-35
decision_type=2 2 2 2 2 2 2
left_child=4 2 -2 -4 5 -1 -6
right_child=1 -3 3 -5 6 -7 -8
leaf_value=0 0.026665019425022415 -0.047369745017594264 -0.036392960221335029 0.013050532260806672 0.015189526908941721 0.03963441198215361 -0.011327204178330365
leaf_weight=19.994455099105835 18.208605855703354 48.399661749601364 14.576731219887733 9.9028438329696655 17.757748156785965 39.423988536000252 25.637598216533661
leaf_count=64 78 429 51 43 64 171 102
internal_value=0 -0.025709 0.00223021 -0.0169572 0.0176813 0.0284758 0
internal_weight=0 91.0878 42.6882 24.4796 102.814 59.4184 43.3953
internal_count=1002 601 172 94 401 235 166
shrinkage=0.1


Tree=60
num_leaves=8
num_cat=0
split_feature=0 4 3 2 1 3 0
split_gain=13.2585 3.83039 3.88662 2.66951 1.67211 4.05101 4.57324
threshold=1.0000000180025095e-35 -1.0000000180025095e-35 -1.0000000180025095e-35 1.0000000180025095e-35 -1.0000000180025095e-35 -1.0000000180025095e-35 -1.0000000180025095e-35
decision_type=2 2 2 2 2 2 2
left_child=4 2 -2 -3 -1 -6 -7
right_child=1 3 -4 -5 5 6 -8
leaf_value=-0.041425002620366858 -0.019828940440838577 0.0054799862337702775 0.028857493832059867 0.050066934181452638 -0.038887098563640025 0.042775304089978164 -0.024983504511981992
leaf_weight=45.346580632030964 31.86777663230896 26.709414437413216 16.904225528240204 36.062888748943806 13.356447979807852 13.308115489780901 7.8505345135927227
leaf_count=257 105 92 102 274 78 51 43
internal_value=0 0.0205982 -6.47439e-05 0.0351424 -0.0300457 -0.00802473 0.0160804
internal_weight=0 111.544 48.772 62.7723 79.8617 34.5151 21.1587
internal_count=1002 573 207 366 429 172 94
shrinkage=0.1


Tree=61
num_leaves=8
num_cat=0
split_feature=3 6 0 5 2 4 2
split_gain=3.42146 2.44522 1.55862 1.30933 1.11805 1.63481 1.47591
threshold=-1.0000000180025095e-35 1.0000000180025095e-35 -1.0000000180025095e-35 -1.0000000180025095e-35 1.0000000180025095e-35 1.0000000180025095e-35 -1.0000000180025095e-35
decision_type=2 2 2 2 2 2 2
left_child=1 2 3 -1 5 6 -2
right_child=4 -3 -4 -5 -6 -7 -8
leaf_value=0.032950725126435425 -0.011835394148739171 0.036171986538003492 -0.022672532064336778 -0.0060162770616342329 -0.032647600114489396 -0.022891195630556024 0.034363258791103461
leaf_weight=6.2945778518915185 2.9299440458416939 30.993612036108971 10.070958022028208 9.4793994054198247 10.393599689006807 5.9613231644034377 7.7265374697744864
leaf_count=33 56 117 172 147 303 116 58
internal_value=0 0.0209084 -0.000985767 0.0143449 -0.0168884 0 0.0196602
internal_weight=0 56.8385 25.8449 15.774 27.0114 16.6178 10.6565
internal_count=1002 469 352 180 533 230 114
shrinkage=0.1


Tree=62
num_leaves=8
num_cat=0
split_feature=1 0 3 0 2 5 6
split_gain=9.04332 5.61028 2.77203 2.39188 1.75061 1.98495 0.992294
threshold=-1.0000000180025095e-35 1.0000000180025095e-35 -1.0000000180025095e-35 -1.0000000180025095e-35 1.0000000180025095e-35 -1.0000000180025095e-35 1.0000000180025095e-35
decision_type=2 2 2 2 2 2 2
left_child=4 2 -2 -4 5 -1 -6
right_child=1 -3 3 -5 6 -7 -8
leaf_value=0 0.025250392572454074 -0.045768361617132665 -0.035610965076886984 0.012028803368102081 0.0098617480204352195 0.037691198320937744 -0.016403728601252904
leaf_weight=19.854479923844337 17.794181391596794 45.71126302331686 14.560638383030891 9.7022774070501328 30.819761037826538 38.22076228260994 12.123553082346914
leaf_count=64 78 429 51 43 118 171 48
internal_value=0 -0.0249123 0.00123289 -0.0171507 0.0167501 0.0267341 0
internal_weight=0 87.7684 42.0571 24.2629 101.019 58.0752 42.9433
internal_count=1002 601 172 94 401 235 166
shrinkage=0.1


Tree=63
num_leaves=8
num_cat=0
split_feature=0 4 3 2 3 1 2
split_gain=11.7895 3.49556 3.48464 2.52862 1.60338 0.976782 0.89893
threshold=1.0000000180025095e-35 -1.0000000180025095e-35 -1.0000000180025095e-35 1.0000000180025095e-35 1.0000000180025095e-35 1.0000000180025095e-35 1.0000000180025095e-35
decision_type=2 2 2 2 2 2 2
left_child=4 2 -2 -3 5 6 -1
right_child=1 3 -4 -5 -6 -7 -8
leaf_value=-0.046850883618359568 -0.018904915350862445 0.0049285308156419546 0.02756763883950443 0.048674671183440606 0.0034554022983288319 0.0019789433103696128 -0.013392997878762539
leaf_weight=35.596758879721165 31.625217750668526 26.364057257771492 16.280298434197903 34.198385342955589 8.9220342338085157 3.5921172201633444 29.490330219268799
leaf_count=267 105 92 102 274 33 11 118
internal_value=0 0.0195676 -0.000214754 0.033737 -0.0287994 -0.0335317 -0.0361599
internal_weight=0 108.468 47.9055 60.5624 77.6012 68.6792 65.0871
internal_count=1002 573 207 366 429 396 385
shrinkage=0.1


Tree=64
num_leaves=8
num_cat=0
split_feature=3 6 0 2 2 4 4
split_gain=3.12789 2.13329 1.4859 1.26722 1.04597 1.54966 1.46622
threshold=-1.0000000180025095e-35 1.0000000180025095e-35 -1.0000000180025095e-35 -1.0000000180025095e-35 1.0000000180025095e-35 1.0000000180025095e-35 -1.0000000180025095e-35
decision_type=2 2 2 2 2 2 2
left_child=1 2 3 -1 5 6 -2
right_child=4 -3 -4 -5 -6 -7 -8
leaf_value=-0.013198642856122364 -0.0069893976115985093 0.034274992930386224 -0.022013240651987329 0.026367072092161426 -0.031693390471098322 -0.022408211204304109 0.038361646879663647
leaf_weight=3.2403192594647416 6.1560617238283157 31.245484799146652 9.8039847984910011 12.491735823452471 9.8881452064961213 5.8053517118096343 4.5644501149654406
leaf_count=69 77 117 172 111 303 116 37
internal_value=0 0.0201557 -0.000497042 0.0143124 -0.0161668 0 0.0191016
internal_weight=0 56.7815 25.536 15.7321 26.414 16.5259 10.7205
internal_count=1002 469 352 180 533 230 114
shrinkage=0.1


Tree=65
num_leaves=8
num_cat=0
split_feature=2 5 1 4 2 4 3
split_gain=8.09248 4.68544 4.15864 2.23633 1.35952 1.39902 1.14493
threshold=1.0000000180025095e-35 -1.0000000180025095e-35 -1.0000000180025095e-35 -1.0000000180025095e-35 -1.0000000180025095e-35 1.0000000180025095e-35 1.0000000180025095e-35
decision_type=2 2 2 2 2 2 2
left_child=1 4 -2 -3 6 -6 -1
right_child=2 3 -4 -5 5 -7 -8
leaf_value=0.024061529990968666 0 0.043868761270899441 -0.041515318558793673 0.0041001558736577888 -0.037484160077428844 0.0026057207867013201 -0.015422635589752921
leaf_weight=8.058272600173952 42.190382540225983 37.348887763917446 45.35448807477951 27.669752448797226 12.364939019083977 8.7687354683876038 2.1930039674043647
leaf_count=38 166 188 398 136 36 30 10
internal_value=0 0.0163399 -0.0234889 0.0304136 -0.0119117 -0.02375 0.00970119
internal_weight=0 96.4036 87.5449 65.0186 31.385 21.1337 10.2513
internal_count=1002 438 564 324 114 66 48
shrinkage=0.1


Tree=66
num_leaves=8
num_cat=0
split_feature=0 4 3 2 3 1 7
split_gain=10.7182 3.1397 3.13267 2.33829 1.49125 0.887546 0.887329
threshold=1.0000000180025095e-35 -1.0000000180025095e-35 -1.0000000180025095e-35 1.0000000180025095e-35 1.0000000180025095e-35 1.0000000180025095e-35 1.0000000180025095e-35
decision_type=2 2 2 2 2 2 2
left_child=4 2 6 -3 5 -1 -2
right_child=1 3 -4 -5 -6 -7 -8
leaf_value=-0.034997809938456269 -0.031036338277225753 0.0048131116084405541 0.026640100364813714 0.047333215858186589 0.0032330433328537755 0.001565832871180729 0
leaf_weight=63.110799014568329 12.718120306730272 26.322636917233467 15.809176817536352 32.503381907939911 8.9051318913698179 3.5564926564693442 18.764430522918701
leaf_count=385 40 92 102 274 33 11 65
internal_value=0 0.0188565 0 0.0324971 -0.0277703 -0.0324453 -0.0177095
internal_weight=0 106.118 47.2917 58.826 75.5724 66.6673 31.4826
internal_count=1002 573 207 366 429 396 105
shrinkage=0.1


Tree=67
num_leaves=8
num_cat=0
split_feature=3 6 0 2 4 4 2
split_gain=2.8304 1.95893 1.36068 1.13883 1.01336 1.5188 1.16629
threshold=-1.0000000180025095e-35 1.0000000180025095e-35 -1.0000000180025095e-35 -1.0000000180025095e-35 1.0000000180025095e-35 -1.0000000180025095e-35 1.0000000180025095e-35
decision_type=2 2 2 2 2 2 2
left_child=1 2 3 -1 5 -2 -7
right_child=4 -3 -4 -5 -6 6 -8
leaf_value=-0.012657274197542269 -0.017629669524765169 0.032645798115524607 -0.021389122866679943 0.02475366179533843 -0.031062178002940279 0.036869227999548275 -0.0081873894300538968
leaf_weight=3.1186935976147661 9.5186405628919619 31.428054198622704 9.5554820224642754 12.780435290187595 9.4660596363246459 4.6904176548123351 2.1608944777399302
leaf_count=69 179 117 172 111 253 37 64
internal_value=0 0.0191683 -0.000576013 0.013431 -0.0155348 0 0.0232657
internal_weight=0 56.8827 25.4546 15.8991 25.836 16.37 6.85131
internal_count=1002 469 352 180 533 280 101
shrinkage=0.1


Tree=68
num_leaves=8
num_cat=0
split_feature=1 0 3 0 7 8 2
split_gain=7.23105 4.74857 2.38377 2.02853 1.54491 0.933954 1.02563
threshold=-1.0000000180025095e-35 1.0000000180025095e-35 -1.0000000180025095e-35 -1.0000000180025095e-35 1.0000000180025095e-35 1.0000000180025095e-35 -1.0000000180025095e-35
decision_type=2 2 2 2 2 2 2
left_child=4 2 -2 -4 -1 6 -6
right_child=1 -3 3 -5 5 -7 -8
leaf_value=0.02857134307941786 0.023657296332627514 -0.043346724220907851 -0.03300637706528655 0.01102193278874926 0.01979539512536125 0.02666796397134448 -0.0082218885588313147
leaf_weight=37.609737403690815 17.052137210965157 41.653742898255587 14.47843624651432 9.4004089832305908 6.3791402131319037 3.5961167216300955 49.895594552159309
leaf_count=170 78 429 51 43 36 12 183
internal_value=0 -0.023148 0.000900551 -0.0160606 0.0149295 0.00278167 -0.00178384
internal_weight=0 82.5847 40.931 23.8788 97.4806 59.8709 56.2747
internal_count=1002 601 172 94 401 231 219
shrinkage=0.1


Tree=69
num_leaves=8
num_cat=0
split_feature=0 4 3 2 3 0 1
split_gain=9.29558 2.90473 2.83352 2.29337 1.46212 4.49904 3.42119
threshold=1.0000000180025095e-35 -1.0000000180025095e-35 -1.0000000180025095e-35 1.0000000180025095e-35 -1.0000000180025095e-35 -1.0000000180025095e-35 -1.0000000180025095e-35
decision_type=2 2 2 2 2 2 2
left_child=4 2 -2 -3 -1 6 -6
right_child=1 3 -4 -5 5 -7 -8
leaf_value=-0.0405011603788233 -0.017256596089392832 0.0039261766613311773 0.02521118650260561 0.046027125476359849 -0.015123813590931866 -0.040497689138055487 0.039450375109125822
leaf_weight=31.650728784501553 31.235257804393768 26.02048721909523 15.277150943875311 30.922922350466251 13.194844752550123 15.430139563977717 13.312170416116716
leaf_count=212 105 92 102 274 68 98 51
internal_value=0 0.0176339 -0.000430228 0.0309961 -0.0262943 -0.00887578 0.0142131
internal_weight=0 103.456 46.5124 56.9434 73.5879 41.9372 26.507
internal_count=1002 573 207 366 429 217 119
shrinkage=0.1


Tree=70
num_leaves=8
num_cat=0
split_feature=3 6 0 5 4 4 2
split_gain=2.59879 1.78065 1.26346 1.10338 0.96058 1.4372 1.1122
threshold=-1.0000000180025095e-35 1.0000000180025095e-35 -1.0000000180025095e-35 -1.0000000180025095e-35 1.0000000180025095e-35 -1.0000000180025095e-35 1.0000000180025095e-35
decision_type=2 2 2 2 2 2 2
left_child=1 2 3 -1 5 -2 -7
right_child=4 -3 -4 -5 -6 6 -8
leaf_value=0.029752459813854 -0.01720065073372163 0.031215650294826053 -0.020748912911489285 -0.0056760787839317262 -0.03028733314591402 0.035834303065458817 -0.0080322792243640289
leaf_weight=6.6488946378231075 9.3549492564052361 31.582220733165741 9.310604967176916 9.3568960130214673 9.0907952990382928 4.7847802937030783 2.1279442068189383
leaf_count=33 179 117 172 147 253 37 64
internal_value=0 0.0184281 -0.000430388 0.0129 -0.0149537 0 0.0226094
internal_weight=0 56.8986 25.3164 16.0058 25.3585 16.2677 6.91272
internal_count=1002 469 352 180 533 280 101
shrinkage=0.1


Tree=71
num_leaves=8
num_cat=0
split_feature=1 0 3 0 2 5 6
split_gain=6.59832 4.11106 2.24698 1.88574 1.40481 1.62445 0.799417
threshold=-1.0000000180025095e-35 1.0000000180025095e-35 -1.0000000180025095e-35 -1.0000000180025095e-35 1.0000000180025095e-35 -1.0000000180025095e-35 -1.0000000180025095e-35
decision_type=2 2 2 2 2 2 2
left_child=4 2 -2 -4 5 -1 -6
right_child=1 -3 3 -5 6 -7 -8
leaf_value=0 0.022425609271018714 -0.041813679085141976 -0.032544402055010024 0.010117572089636116 0.012816012540022084 0.033791399196325726 -0.010213402556257509
leaf_weight=19.355263069272041 16.738516382873058 39.511446949094534 14.463700726628304 9.2422307431697845 16.869156166911125 35.490346223115921 24.328305080533028
leaf_count=64 78 429 51 43 64 171 102
internal_value=0 -0.0224788 0 -0.0163613 0.0142889 0.0234632 0
internal_weight=0 79.9559 40.4444 23.7059 96.0431 54.8456 41.1975
internal_count=1002 601 172 94 401 235 166
shrinkage=0.1


Tree=72
num_leaves=8
num_cat=0
split_feature=0 4 3 2 3 7 6
split_gain=8.34352 2.65233 2.54205 2.16633 1.30833 0.818552 2.35994
threshold=1.0000000180025095e-35 -1.0000000180025095e-35 -1.0000000180025095e-35 1.0000000180025095e-35 1.0000000180025095e-35 1.0000000180025095e-35 1.0000000180025095e-35
decision_type=2 2 2 2 2 2 2
left_child=4 2 5 -3 -1 -2 -7
right_child=1 3 -4 -5 -6 6 -8
leaf_value=-0.029899000564723756 -0.029273383809927351 0.0034938767206318016 0.024059602055390178 0.044741198048750298 0.0033107788810383455 0.022234099656945082 -0.027480799204668782
leaf_weight=62.922020353376865 12.497528642416002 25.713823139667511 14.775177299976347 29.461303450167179 8.8276058435440046 10.959137350320818 7.5293879508972159
leaf_count=396 40 92 102 274 33 43 22
internal_value=0 0.0167854 -0.000505942 0.029771 -0.0252963 -0.0164518 0
internal_weight=0 100.936 45.7612 55.1751 71.7496 30.9861 18.4885
internal_count=1002 573 207 366 429 105 65
shrinkage=0.1


Tree=73
num_leaves=8
num_cat=0
split_feature=3 6 0 2 2 2 0
split_gain=2.3545 1.57781 1.19873 1.02729 0.944279 1.42325 1.41431
threshold=-1.0000000180025095e-35 1.0000000180025095e-35 -1.0000000180025095e-35 -1.0000000180025095e-35 1.0000000180025095e-35 -1.0000000180025095e-35 1.0000000180025095e-35
decision_type=2 2 2 2 2 2 2
left_child=1 2 3 -1 5 -2 -7
right_child=4 -3 -4 -5 -6 6 -8
leaf_value=-0.012090744211924881 -0.02110589825876533 0.029698301948040073 -0.020173051659687549 0.023396657938349094 -0.029560838976832718 0.033435408947115684 -0.011734754545251302
leaf_weight=2.9907544180750856 5.4545500986278048 31.721658706665039 9.0922424606978893 13.003150727599857 8.8215992040932178 7.6416127160191536 2.8908491916954517
leaf_count=69 122 117 172 111 303 54 54
internal_value=0 0.0177381 -0.00011457 0.0127387 -0.0141913 0.000477216 0.0189253
internal_weight=0 56.8078 25.0861 15.9939 24.8086 15.987 10.5325
internal_count=1002 469 352 180 533 230 108
shrinkage=0.1


Tree=74
num_leaves=8
num_cat=0
split_feature=2 5 1 4 2 4 3
split_gain=6.02745 4.1014 3.16559 2.0005 1.16778 1.31149 0.978128
threshold=1.0000000180025095e-35 -1.0000000180025095e-35 -1.0000000180025095e-35 -1.0000000180025095e-35 -1.0000000180025095e-35 1.0000000180025095e-35 1.0000000180025095e-35
decision_type=2 2 2 2 2 2 2
left_child=1 4 -2 -3 6 -6 -1
right_child=2 3 -4 -5 5 -7 -8
leaf_value=0.02227435968220328 0 0.041116554726768791 -0.037932970768528293 0.0027755081100497838 -0.036270258345971244 0.0026009742494301851 -0.0143780846196029
leaf_weight=7.5148745924234408 40.608679823577404 34.545739062130451 40.3425307944417 26.11856647580862 12.214125424623489 8.6037783473730087 2.0950697362422943
leaf_count=38 166 188 398 136 36 30 10
internal_value=0 0.0142515 -0.0211755 0.0280455 -0.0121475 -0.0229517 0.00847675
internal_weight=0 91.0922 80.9512 60.6643 30.4278 20.8179 9.60994
internal_count=1002 438 564 324 114 66 48
shrinkage=0.1


Tree=75
num_leaves=8
num_cat=0
split_feature=0 1 7 6 3 3 0
split_gain=7.50312 2.42606 2.12548 1.37348 1.26282 1.2562 4.0911
threshold=1.0000000180025095e-35 -1.0000000180025095e-35 1.0000000180025095e-35 1.0000000180025095e-35 -1.0000000180025095e-35 -1.0000000180025095e-35 -1.0000000180025095e-35
decision_type=2 2 2 2 2 2 2
left_child=5 2 -2 -3 -5 -1 -7
right_child=1 3 -4 4 -6 6 -8
leaf_value=-0.037749120069735187 -0.027656620483892003 0.039057738781809015 0.011531225171297304 -0.0073530471265209427 0.026655053557085903 0.014020529169584031 -0.03875024295046104
leaf_weight=29.449135027825832 11.322363361716269 32.786553032696247 28.556584231555462 19.439117670059208 6.8162737116217604 26.102775000035763 14.584185943007467
leaf_count=212 38 285 106 70 74 119 98
internal_value=0 0.0161385 -0.00190661 0.0275618 0.00501364 -0.0241543 -0.0078218
internal_weight=0 98.9209 39.8789 59.0419 26.2554 70.1361 40.687
internal_count=1002 573 144 429 144 429 217
shrinkage=0.1


Tree=76
num_leaves=8
num_cat=0
split_feature=3 6 0 5 4 2 2
split_gain=2.15737 1.43058 1.07544 0.952078 0.919693 1.3222 1.28155
threshold=-1.0000000180025095e-35 1.0000000180025095e-35 -1.0000000180025095e-35 -1.0000000180025095e-35 1.0000000180025095e-35 1.0000000180025095e-35 -1.0000000180025095e-35
decision_type=2 2 2 2 2 2 2
left_child=1 2 3 -1 5 6 -2
right_child=4 -3 -4 -5 -6 -7 -8
leaf_value=0.027333387206043371 -0.011114754011271516 0.028157130273899347 -0.019408038264938005 -0.0053368896207176431 -0.029172075989224874 -0.020427739257766631 0.0318725583652597
leaf_weight=6.9195874780416515 2.7723738104104996 31.825182303786278 8.8149800095707196 9.2416834123432618 8.5612785248085856 5.2448529060930023 7.8236683458089811
leaf_count=33 56 117 172 147 253 166 58
internal_value=0 0.0168005 -0.000153903 0.0118411 -0.0138586 0.000569107 0.018262
internal_weight=0 56.8014 24.9763 16.1613 24.4022 15.8409 10.596
internal_count=1002 469 352 180 533 280 114
shrinkage=0.1


Tree=77
num_leaves=8
num_cat=0
split_feature=1 0 7 4 3 4 6
split_gain=5.42757 3.44862 2.00083 1.26561 3.28709 1.83562 1.537
threshold=-1.0000000180025095e-35 1.0000000180025095e-35 1.0000000180025095e-35 -1.0000000180025095e-35 -1.0000000180025095e-35 1.0000000180025095e-35 1.0000000180025095e-35
decision_type=2 2 2 2 2 2 2
left_child=3 2 -2 6 -5 -6 -1
right_child=1 -3 -4 4 5 -7 -8
leaf_value=0.029907650924700813 0.022289218587973308 -0.039536765020772871 -0.014934077485589885 -0.028502741862627232 -0.011239321553833347 0.03151652363729078 -0.0040190169032121763
leaf_weight=40.300394646823406 14.606769658625124 36.326921388506889 24.899300768971443 14.804177932441233 6.9555636495351818 19.129565298557281 11.957363381981848
leaf_count=176 81 429 91 62 30 88 45
internal_value=0 -0.0210215 0 0.0129585 0 0.0187749 0.021943
internal_weight=0 75.833 39.5061 93.1471 40.8893 26.0851 52.2578
internal_count=1002 601 172 401 180 118 221
shrinkage=0.1


Tree=78
num_leaves=8
num_cat=0
split_feature=0 4 3 2 1 3 0
split_gain=6.62262 2.31076 2.2416 2.16304 1.21227 2.781 3.11
threshold=1.0000000180025095e-35 -1.0000000180025095e-35 -1.0000000180025095e-35 1.0000000180025095e-35 -1.0000000180025095e-35 -1.0000000180025095e-35 -1.0000000180025095e-35
decision_type=2 2 2 2 2 2 2
left_child=4 2 -2 -3 -1 -6 -7
right_child=1 3 -4 -5 5 6 -8
leaf_value=-0.033374696449225555 -0.015994232473722982 0.0020101581306196563 0.022561066163551448 0.043055149018822104 -0.032201149255271136 0.036312850288612628 -0.020549869079085271
leaf_weight=37.446530144661665 30.206066653132439 25.218962371349335 13.934555158019064 27.450102541595697 10.931162208318712 13.372004665434362 6.8014967218041411
leaf_count=257 105 92 102 274 78 51 43
internal_value=0 0.0152621 -0.000980338 0.0276566 -0.022967 -0.0041497 0.0150276
internal_weight=0 96.8097 44.1406 52.6691 68.5512 31.1047 20.1735
internal_count=1002 573 207 366 429 172 94
shrinkage=0.1


Tree=79
num_leaves=8
num_cat=0
split_feature=3 6 0 2 4 4 2
split_gain=1.92539 1.18196 0.977059 0.890294 0.860972 1.26703 0.947962
threshold=-1.0000000180025095e-35 1.0000000180025095e-35 -1.0000000180025095e-35 -1.0000000180025095e-35 1.0000000180025095e-35 -1.0000000180025095e-35 1.0000000180025095e-35
decision_type=2 2 2 2 2 2 2
left_child=1 2 3 -1 5 -2 -7
right_child=4 -3 -4 -5 -6 6 -8
leaf_value=-0.011491208503768955 -0.015933468315321747 0.025986969292917855 -0.01846994847816965 0.021381914230498865 -0.028307957053320239 0.0335187022918279 -0.0071288614689756363
leaf_weight=2.8583847135305431 8.841455861926077 32.227715954184532 8.4907697904855031 13.333342999219893 8.1865836242213845 4.9244035966694364 1.9527170266956089
leaf_count=69 179 117 172 111 253 37 64
internal_value=0 0.0157973 0 0.011498 -0.0132722 0.000576534 0.0216291
internal_weight=0 56.9102 24.6825 16.1917 23.9052 15.7186 6.87712
internal_count=1002 469 352 180 533 280 101
shrinkage=0.1


Tree=80
num_leaves=8
num_cat=0
split_feature=2 5 6 4 0 2 4
split_gain=5.23722 3.70816 2.5891 1.75766 1.30522 1.01807 1.20117
threshold=1.0000000180025095e-35 -1.0000000180025095e-35 -1.0000000180025095e-35 -1.0000000180025095e-35 1.0000000180025095e-35 -1.0000000180025095e-35 1.0000000180025095e-35
decision_type=2 2 2 2 2 2 2
left_child=1 5 -2 -3 -4 -1 -7
right_child=2 3 4 -5 -6 6 -8
leaf_value=0.0077928384941218362 0.0042864046344703857 0.039438096803928804 -0.0089272497352504334 0.0026492585738378495 -0.045226206528640955 -0.034501693470076658 0.0026139342247702012
leaf_weight=9.2310214787721652 24.352743379771709 32.990200608968735 28.545145645737648 25.273913495242596 24.502445545047522 12.111091792583466 8.4837063997983932
leaf_count=48 148 188 90 136 326 36 30
internal_value=0 0.0135 -0.020106 0.026938 -0.0310007 -0.0116681 -0.0217212
internal_weight=0 88.0899 77.4003 58.2641 53.0476 29.8258 20.5948
internal_count=1002 438 564 324 416 114 66
shrinkage=0.1


Tree=81
num_leaves=8
num_cat=0
split_feature=0 4 3 2 3 2 3
split_gain=5.99269 2.07289 2.02539 1.98427 1.11757 0.78944 2.77937
threshold=1.0000000180025095e-35 -1.0000000180025095e-35 -1.0000000180025095e-35 1.0000000180025095e-35 1.0000000180025095e-35 1.0000000180025095e-35 -1.0000000180025095e-35
decision_type=2 2 2 2 2 2 2
left_child=4 2 -2 -3 5 -1 -7
right_child=1 3 -4 -5 -6 6 -8
leaf_value=-0.037108953504032358 -0.015049015894310734 0.0020131817663936093 0.021797844013270094 0.041742226655836996 0.0037690326685627879 -0.031413343501449885 0.015817298948165619
leaf_weight=28.815324887633324 30.063508704304695 25.201480239629745 13.589644059538839 26.193362347781658 8.6613371223211271 14.541184768080711 15.001891791820526
leaf_count=269 105 92 102 274 33 74 53
internal_value=0 0.014688 -0.000721542 0.0265765 -0.0220141 -0.0265637 -0.00823047
internal_weight=0 95.048 43.6532 51.3948 67.0197 58.3584 29.5431
internal_count=1002 573 207 366 429 396 127
shrinkage=0.1


Tree=82
num_leaves=8
num_cat=0
split_feature=3 5 4 6 2 4 2
split_gain=1.77381 1.22516 1.21024 3.86622 1.41756 0.934653 1.3701
threshold=1.0000000180025095e-35 -1.0000000180025095e-35 -1.0000000180025095e-35 1.0000000180025095e-35 1.0000000180025095e-35 1.0000000180025095e-35 -1.0000000180025095e-35
decision_type=2 2 2 2 2 2 2
left_child=1 5 3 -3 -5 6 -1
right_child=-2 2 -4 4 -6 -7 -8
leaf_value=-0.0079588548866485042 -0.024050291690352679 -0.038652082204494634 0.016065167868390923 -0.011163440031069604 0.032846717296328182 0 0.039498476082191813
leaf_weight=1.959227249026301 6.4859546134248367 13.7940304428339 16.756126149557531 3.3942861296236506 9.2951071206480265 9.2833036817610282 19.351083653979003
leaf_count=23 229 250 211 21 49 95 124
internal_value=0 0.0115842 0 -0.0119351 0.0191391 0.0240613 0.03239
internal_weight=0 73.8332 43.2395 26.4834 12.6894 30.5936 21.3103
internal_count=1002 773 531 320 70 242 147
shrinkage=0.1


Tree=83
num_leaves=8
num_cat=0
split_feature=2 5 1 4 2 4 3
split_gain=4.65556 3.37658 2.34049 1.624 0.938616 1.10712 0.868318
threshold=1.0000000180025095e-35 -1.0000000180025095e-35 -1.0000000180025095e-35 -1.0000000180025095e-35 -1.0000000180025095e-35 1.0000000180025095e-35 1.0000000180025095e-35
decision_type=2 2 2 2 2 2 2
left_child=1 4 -2 -3 6 -6 -1
right_child=2 3 -4 -5 5 -7 -8
leaf_value=0.020870159682559043 0 0.037802111939006941 -0.034472290338004516 0.00229099551920991 -0.033252207478494451 0.0023580314832373703 -0.01376209344149449
leaf_weight=7.1046603769063967 39.091531507670879 32.200651772320271 36.464686810970306 25.100401662290096 12.043304212391376 8.4607992768287659 2.0294998809695244
leaf_count=38 166 188 398 136 36 30 10
internal_value=0 0.0126642 -0.0192825 0.0256413 -0.011303 -0.020963 0.00739128
internal_weight=0 86.9393 75.5562 57.3011 29.6383 20.5041 9.13416
internal_count=1002 438 564 324 114 66 48
shrinkage=0.1


Tree=84
num_leaves=8
num_cat=0
split_feature=0 1 7 6 3 3 0
split_gain=5.5374 2.00701 1.85558 1.07721 1.04166 0.944784 0.767352
threshold=1.0000000180025095e-35 -1.0000000180025095e-35 1.0000000180025095e-35 1.0000000180025095e-35 1.0000000180025095e-35 -1.0000000180025095e-35 -1.0000000180025095e-35
decision_type=2 2 2 2 2 2 2
left_child=4 2 -2 -3 6 -5 -1
right_child=1 3 -4 5 -6 -7 -8
leaf_value=-0.012302144249479962 -0.026272411267135972 0.035920036036736679 0.010647147970713654 -0.0059584543637435207 0.0035417579700445512 0.023915226014455504 -0.043283616416359839
leaf_weight=43.504230942577124 10.970724135637282 29.68585704639554 27.767473325133324 19.18451721966267 8.6493930965661985 5.9388648942112914 13.430542826652525
leaf_count=295 38 285 106 70 33 74 101
internal_value=0 0.0143313 -0.00202789 0.025194 -0.0212521 0.00447813 -0.0257321
internal_weight=0 93.5474 38.7382 54.8092 65.5842 25.1234 56.9348
internal_count=1002 573 144 429 429 144 396
shrinkage=0.1


Tree=85
num_leaves=8
num_cat=0
split_feature=3 5 4 6 2 6 4
split_gain=1.6425 1.01003 1.12571 3.59323 1.28797 0.769693 0.750094
threshold=1.0000000180025095e-35 -1.0000000180025095e-35 -1.0000000180025095e-35 1.0000000180025095e-35 1.0000000180025095e-35 1.0000000180025095e-35 1.0000000180025095e-35
decision_type=2 2 2 2 2 2 2
left_child=1 6 3 -3 -5 -4 -1
right_child=-2 2 5 4 -6 -7 -8
leaf_value=0.029669293574473017 -0.023393172124864858 -0.037708238572864636 0.028404512582947534 -0.010566902455789293 0.031367832427872534 -0.0016143406477564231 0
leaf_weight=21.656077738851309 6.2544602816924444 13.1625458560884 7.6828666012734184 3.3162236660718909 9.3378272633999586 9.139411399140954 9.1605217922478932
leaf_count=147 229 250 154 21 49 57 95
internal_value=0 0.0110903 0 -0.0113786 0.0183576 0.0157099 0.0223369
internal_weight=0 73.4555 42.6389 25.8166 12.6541 16.8223 30.8166
internal_count=1002 773 531 320 70 211 242
shrinkage=0.1


Tree=86
num_leaves=8
num_cat=0
split_feature=1 0 3 0 4 3 4
split_gain=4.056 2.69434 1.71929 1.41366 0.987366 2.94162 1.62538
threshold=-1.0000000180025095e-35 1.0000000180025095e-35 -1.0000000180025095e-35 -1.0000000180025095e-35 -1.0000000180025095e-35 -1.0000000180025095e-35 1.0000000180025095e-35
decision_type=2 2 2 2 2 2 2
left_child=4 2 -2 -4 -1 -6 -7
right_child=1 -3 3 -5 5 6 -8
leaf_value=0.019302029487732526 0.019761051146093667 -0.036322204039390314 -0.028886054880300705 0.008455096003269073 -0.027414540710967595 -0.010479517274171578 0.029989027624518456
leaf_weight=49.615336082875729 15.347340375185011 32.436251368373632 14.089629322290419 8.6165454536676425 14.394192814826964 6.7943023294210461 18.345188945531845
leaf_count=221 78 429 51 43 62 30 88
internal_value=0 -0.0189954 0 -0.0149345 0.0111548 0 0.0177592
internal_weight=0 70.4898 38.0535 22.7062 89.149 39.5337 25.1395
internal_count=1002 601 172 94 401 180 118
shrinkage=0.1


Tree=87
num_leaves=8
num_cat=0
split_feature=0 4 3 2 7 6 3
split_gain=4.89424 1.79538 2.33976 2.13257 1.49671 2.19213 1.04221
threshold=1.0000000180025095e-35 1.0000000180025095e-35 -1.0000000180025095e-35 -1.0000000180025095e-35 1.0000000180025095e-35 1.0000000180025095e-35 -1.0000000180025095e-35
decision_type=2 2 2 2 2 2 2
left_child=6 2 4 -3 -2 -6 -1
right_child=1 3 -4 -5 5 -7 -8
leaf_value=-0.033066048187690412 -0.032791949579873622 -0.0068031407509270975 0.021932259910480648 0.036450613024538163 0.024754087190913151 -0.023086538407053638 -0.0054247430263642095
leaf_weight=26.049325905740261 12.788999766111376 9.3439242988824827 18.489657308906317 32.862458296120167 10.908295705914499 7.3825176060199729 38.3493392765522
leaf_count=212 43 38 157 268 45 22 217
internal_value=0 0.0135059 0 0.0264482 -0.0153611 0.00234223 -0.0202193
internal_weight=0 91.7759 49.5695 42.2064 31.0798 18.2908 64.3987
internal_count=1002 573 267 306 110 67 429
shrinkage=0.1


Tree=88
num_leaves=8
num_cat=0
split_feature=3 6 0 2 2 0 4
split_gain=1.58661 0.910357 0.868289 0.80919 1.22738 1.16607 0.983011
threshold=-1.0000000180025095e-35 1.0000000180025095e-35 -1.0000000180025095e-35 1.0000000180025095e-35 -1.0000000180025095e-35 1.0000000180025095e-35 1.0000000180025095e-35
decision_type=2 2 2 2 2 2 2
left_child=1 2 -1 4 -2 6 -6
right_child=3 -3 -4 -5 5 -7 -8
leaf_value=0.010999241609999303 -0.019473612767867108 0.023143413460565958 -0.017465352002974544 -0.027199809736269384 0.040549327270349662 -0.010345346653443818 -0.00495511336480251
leaf_weight=16.047004375606779 4.9587605856358996 32.126443117856979 8.1342377252876741 7.7450369521975508 6.1079979389905947 2.5942850075662136 1.5033835992217062
leaf_count=180 122 117 172 303 31 54 23
internal_value=0 0.0142476 0 -0.0124003 0.000976559 0.0181076 0.0310122
internal_weight=0 56.3077 24.1812 22.9095 15.1644 10.2057 7.61138
internal_count=1002 469 352 533 230 108 54
shrinkage=0.1


Tree=89
num_leaves=8
num_cat=0
split_feature=2 5 6 1 8 4 2
split_gain=3.88876 3.01029 2.12321 1.37234 1.16486 0.864131 0.818997
threshold=1.0000000180025095e-35 -1.0000000180025095e-35 -1.0000000180025095e-35 1.0000000180025095e-35 1.0000000180025095e-35 -1.0000000180025095e-35 -1.0000000180025095e-35
decision_type=2 2 2 2 2 2 2
left_child=1 6 -2 5 -4 -3 -1
right_child=2 3 4 -5 -6 -7 -8
leaf_value=0.0066407301775208887 0.004154921217280695 0.037997931637214204 -0.033748338935359987 -0.011879064207328115 0.0013203817779710234 0.006407551900431397 -0.020001451197440942
leaf_weight=8.7880473136901873 23.300842698663473 29.644357867538929 42.070436324924231 2.3881536424159995 7.4177877642214289 22.865445502102375 20.277227073907852
leaf_count=48 148 184 358 14 58 126 66
internal_value=0 0.0115897 -0.0180692 0.0241892 -0.028313 0.0282674 -0.0110283
internal_weight=0 83.9632 72.7891 54.898 49.4882 52.5098 29.0653
internal_count=1002 438 564 324 416 310 114
shrinkage=0.1


Tree=90
num_leaves=8
num_cat=0
split_feature=1 2 3 0 7 3 4
split_gain=4.54655 3.46161 1.27053 1.22062 1.54787 1.18267 1.13808
threshold=-1.0000000180025095e-35 1.0000000180025095e-35 -1.0000000180025095e-35 1.0000000180025095e-35 1.0000000180025095e-35 1.0000000180025095e-35 1.0000000180025095e-35
decision_type=2 2 2 2 2 2 2
left_child=3 5 6 -1 -5 -2 -3
right_child=1 2 -4 4 -6 -7 -8
leaf_value=-0.029431781051963236 -0.019592748666386873 -0.006120388483315739 0.0440922674996439 -0.024725615549378993 0.0091161883328393593 0.011716360277247442 0.02433567928726154
leaf_weight=34.052062790840864 22.551985334604979 17.009428292512894 21.240063268691301 10.749997437000273 27.360268026590347 8.8384425491094607 11.87121716886759
leaf_count=257 156 67 232 38 106 47 99
internal_value=0 0.0145045 0.0290148 -0.0178793 -0.00254568 -0.00886835 0.00815168
internal_weight=0 81.5111 50.1207 72.1623 38.1103 31.3904 28.8806
internal_count=1002 601 398 401 144 203 166
shrinkage=0.1


Tree=91
num_leaves=8
num_cat=0
split_feature=3 6 0 2 2 0 4
split_gain=1.43355 0.810072 0.778943 0.769013 1.16057 1.09066 0.949922
threshold=-1.0000000180025095e-35 1.0000000180025095e-35 -1.0000000180025095e-35 1.0000000180025095e-35 -1.0000000180025095e-35 1.0000000180025095e-35 1.0000000180025095e-35
decision_type=2 2 2 2 2 2 2
left_child=1 2 -1 4 -2 6 -6
right_child=3 -3 -4 -5 5 -7 -8
leaf_value=0.010249858908226529 -0.019025654553341941 0.021723616569269386 -0.016773285216556338 -0.026625538259551631 0.039429035595507457 -0.0099767384031017575 -0.0049627116358699486
leaf_weight=16.188839182257656 4.8294887486845246 32.126399144530296 7.9070895221084347 7.506170933134853 6.1682649254798907 2.519179742783308 1.5034803040325639
leaf_count=180 122 117 172 303 31 54 23
internal_value=0 0.013337 0 -0.0120745 0.00093401 0.0176074 0.0300146
internal_weight=0 56.2223 24.0959 22.5266 15.0204 10.1909 7.67175
internal_count=1002 469 352 533 230 108 54
shrinkage=0.1


Tree=92
num_leaves=8
num_cat=0
split_feature=2 5 6 1 0 4 2
split_gain=3.52431 2.6664 1.87528 1.30411 1.1359 0.750418 0.710725
threshold=1.0000000180025095e-35 -1.0000000180025095e-35 -1.0000000180025095e-35 1.0000000180025095e-35 1.0000000180025095e-35 -1.0000000180025095e-35 -1.0000000180025095e-35
decision_type=2 2 2 2 2 2 2
left_child=1 6 -2 5 -4 -3 -1
right_child=2 3 4 -5 -6 -7 -8
leaf_value=0.0062284493071546381 0.0037774110171838364 0.036546018744921187 -0.0070365308410472605 -0.011724200883840659 -0.041198594782768556 0.0063661201448077 -0.018499480045667434
leaf_weight=8.7324932292103785 23.060289621353149 29.018324822187424 28.167974904179573 2.3636048138141623 20.451962813735008 22.748977512121201 20.092177860438824
leaf_count=48 148 184 90 14 326 126 66
internal_value=0 0.0112901 -0.0171188 0.0232259 -0.0268364 0.0272709 -0.0100456
internal_weight=0 82.9556 71.6802 54.1309 48.6199 51.7673 28.8247
internal_count=1002 438 564 324 416 310 114
shrinkage=0.1


Tree=93
num_leaves=8
num_cat=0
split_feature=1 2 8 0 7 3 4
split_gain=4.19844 3.03626 1.23447 1.06968 1.39937 1.05594 0.497124
threshold=-1.0000000180025095e-35 1.0000000180025095e-35 1.0000000180025095e-35 1.0000000180025095e-35 1.0000000180025095e-35 1.0000000180025095e-35 -1.0000000180025095e-35
decision_type=2 2 2 2 2 2 2
left_child=3 5 -3 -1 -5 -2 -4
right_child=1 2 6 4 -6 -7 -8
leaf_value=-0.028217260184699829 -0.018112312458803334 0.034081291594993117 -0.015700473975626426 -0.023756985778906285 0.0084798686281043721 0.011432105473740318 0.010199507482302906
leaf_weight=33.12954019382596 22.347852271050215 40.132303155958652 3.7884744666516781 10.65015736222267 27.12820790708065 8.7842403352260607 5.1826227568089944
leaf_count=257 156 329 17 38 106 47 52
internal_value=0 0.0141385 0.0278655 -0.0172139 -0.0026318 -0.0078078 -0.000613054
internal_weight=0 80.2355 49.1034 70.9079 37.7784 31.1321 8.9711
internal_count=1002 601 398 401 144 203 69
shrinkage=0.1


Tree=94
num_leaves=8
num_cat=0
split_feature=3 5 4 6 2 6 4
split_gain=1.30797 0.835389 1.0494 3.06165 1.0772 0.797058 0.608624
threshold=1.0000000180025095e-35 -1.0000000180025095e-35 -1.0000000180025095e-35 1.0000000180025095e-35 1.0000000180025095e-35 1.0000000180025095e-35 1.0000000180025095e-35
decision_type=2 2 2 2 2 2 2
left_child=1 6 3 -3 -5 -4 -1
right_child=-2 2 5 4 -6 -7 -8
leaf_value=0.0263775744534279 -0.021604143660920259 -0.036466192002750308 0.027656372043682338 -0.010041439659516592 0.027970150142112595 -0.002493213668740871 0
leaf_weight=21.753243176266551 5.6509447852149597 12.32884853426367 7.7788597950711855 3.2198217399418345 9.3136771693825722 9.2055480806156993 9.0732755195349473
leaf_count=147 229 250 154 21 49 57 95
internal_value=0 0.00962131 0 -0.0116684 0.0158635 0.0145942 0.0198008
internal_weight=0 72.6733 41.8468 24.8623 12.5335 16.9844 30.8265
internal_count=1002 773 531 320 70 211 242
shrinkage=0.1


Tree=95
num_leaves=8
num_cat=0
split_feature=1 7 4 2 5 2 2
split_gain=3.29385 2.59678 1.37412 0.763694 0.986188 1.07453 0.695955
threshold=1.0000000180025095e-35 1.0000000180025095e-35 -1.0000000180025095e-35 -1.0000000180025095e-35 -1.0000000180025095e-35 1.0000000180025095e-35 1.0000000180025095e-35
decision_type=2 2 2 2 2 2 2
left_child=1 6 3 -3 -5 -6 -1
right_child=-2 2 -4 4 5 -7 -8
leaf_value=0.027257083166829746 -0.038684496498083677 0.022850878470290006 -0.018192757943690758 -0.016035492354590508 0.026431289692599398 -0.0060485868862415592 0.0020427512073021908
leaf_weight=29.935872547328472 11.319053314626215 6.2386087104678145 42.602389488369226 17.4341094866395 8.4547866433858871 12.379190064966679 23.897436974570155
leaf_count=203 142 44 280 79 40 68 146
internal_value=0 0.00320894 -0.00693462 0.00428513 -0.00181275 0.00980805 0.0189208
internal_weight=0 140.942 87.1091 44.5067 38.2681 20.834 53.8333
internal_count=1002 860 511 231 187 108 349
shrinkage=0.1


Tree=96
num_leaves=8
num_cat=0
split_feature=0 1 7 3 0 3 2
split_gain=3.86375 1.6831 1.23682 0.932998 0.964959 3.4436 1.40877
threshold=1.0000000180025095e-35 -1.0000000180025095e-35 1.0000000180025095e-35 1.0000000180025095e-35 -1.0000000180025095e-35 -1.0000000180025095e-35 1.0000000180025095e-35
decision_type=2 2 2 2 2 2 2
left_child=3 2 -2 4 5 -1 -7
right_child=1 -3 -4 -5 -6 6 -8
leaf_value=-0.029834625554904261 -0.022595361362147095 0.022594606213962459 0.0077377264864868303 0.0043822973600518966 -0.041562208207815983 -0.0087914702613459076 0.032178402847381854
leaf_weight=23.551125831902027 10.573247238993643 50.455910690128803 26.969198733568192 8.3523864895105344 12.364772304892538 5.7574143446981916 10.98400816321373
leaf_count=207 38 429 106 33 101 49 39
internal_value=0 0.0121142 -0.00270921 -0.0184959 -0.023043 -0.00923167 0.0182003
internal_weight=0 87.9984 37.5424 61.0097 52.6573 40.2925 16.7414
internal_count=1002 573 144 429 396 295 88
shrinkage=0.1


Tree=97
num_leaves=8
num_cat=0
split_feature=3 4 2 2 0 6 0
split_gain=1.2899 0.720995 1.04382 1.02956 0.894112 0.710946 0.71407
threshold=-1.0000000180025095e-35 1.0000000180025095e-35 1.0000000180025095e-35 -1.0000000180025095e-35 1.0000000180025095e-35 1.0000000180025095e-35 -1.0000000180025095e-35
decision_type=2 2 2 2 2 2 2
left_child=5 2 3 -2 -5 6 -1
right_child=1 -3 -4 4 -6 -7 -8
leaf_value=0.0097972406615276265 -0.0098341845543725506 -0.025932579137780049 -0.018190100344189938 0.03803455203517267 -0.0047891110109646272 0.020408972872519041 -0.016170304876765469
leaf_weight=16.150004927068952 2.4997125528752804 7.1869138460606328 4.5708291064947835 6.1762954667210597 1.5013195127248762 32.003010123968124 7.709526924416422
leaf_count=180 56 253 166 31 27 117 172
internal_value=0 -0.0116954 0.000897349 0.0167144 0.0288601 0.0125575 0
internal_weight=0 21.9351 14.7482 10.1773 7.67761 55.8625 23.8595
internal_count=1002 533 280 114 58 469 352
shrinkage=0.1


Tree=98
num_leaves=8
num_cat=0
split_feature=1 2 5 0 6 2 4
split_gain=3.04576 2.26073 2.05277 1.28003 1.01206 0.81333 1.10006
threshold=1.0000000180025095e-35 1.0000000180025095e-35 -1.0000000180025095e-35 1.0000000180025095e-35 -1.0000000180025095e-35 -1.0000000180025095e-35 1.0000000180025095e-35
decision_type=2 2 2 2 2 2 2
left_child=1 2 5 -3 -5 -1 -7
right_child=-2 3 -4 4 -6 6 -8
leaf_value=0.011237746978560682 -0.037637403086992927 0.00092316550693242723 0.024576474794464492 0.00042831819326620508 -0.034583927824637567 -0.028469669227396851 0.0060091269929745238
leaf_weight=7.4754208326339748 10.850574946030973 39.36151622235775 50.173825241625309 7.9186784327030209 14.959517657756804 11.590613670647146 7.7708100304007521
leaf_count=42 142 134 310 75 238 34 27
